{"learner":{"attributes":{"best_iteration":"99","best_ntree_limit":"100","scikit_learn":"{\"use_label_encoder\": null, \"n_estimators\": 100, \"objective\": \"binary:logistic\", \"max_depth\": null, \"max_leaves\": null, \"max_bin\": null, \"grow_policy\": null, \"learning_rate\": null, \"verbosity\": null, \"booster\": null, \"tree_method\": null, \"gamma\": null, \"min_child_weight\": null, \"max_delta_step\": null, \"subsample\": null, \"sampling_method\": null, \"colsample_bytree\": null, \"colsample_bylevel\": null, \"colsample_bynode\": null, \"reg_alpha\": null, \"reg_lambda\": null, \"scale_pos_weight\": 3.0174825174825175, \"base_score\": null, \"missing\": NaN, \"num_parallel_tree\": null, \"random_state\": null, \"n_jobs\": null, \"monotone_constraints\": null, \"interaction_constraints\": null, \"importance_type\": null, \"gpu_id\": null, \"validate_parameters\": null, \"predictor\": null, \"enable_categorical\": false, \"feature_types\": null, \"max_cat_to_onehot\": null, \"max_cat_threshold\": null, \"eval_metric\": null, \"early_stopping_rounds\": null, \"callbacks\": null, \"classes_\": [0, 1], \"n_classes_\": 2, \"_estimator_type\": \"classifier\"}"},"feature_names":["age","education_num","capital_gain","capital_loss","hours_per_week","workclass_Federal-gov","workclass_Local-gov","workclass_Private","workclass_Self-emp-inc","workclass_Self-emp-not-inc","workclass_State-gov","workclass_Without-pay","education_10th","education_11th","education_12th","education_1st-4th","education_5th-6th","education_7th-8th","education_9th","education_Assoc-acdm","education_Assoc-voc","education_Bachelors","education_Doctorate","education_HS-grad","education_Masters","education_Preschool","education_Prof-school","education_Some-college","marital_status_Divorced","marital_status_Married-AF-spouse","marital_status_Married-civ-spouse","marital_status_Married-spouse-absent","marital_status_Never-married","marital_status_Separated","marital_status_Widowed","occupation_Adm-clerical","occupation_Armed-Forces","occupation_Craft-repair","occupation_Exec-managerial","occupation_Farming-fishing","occupation_Handlers-cleaners","occupation_Machine-op-inspct","occupation_Other-service","occupation_Priv-house-serv","occupation_Prof-specialty","occupation_Protective-serv","occupation_Sales","occupation_Tech-support","occupation_Transport-moving","relationship_Husband","relationship_Not-in-family","relationship_Other-relative","relationship_Own-child","relationship_Unmarried","relationship_Wife","race_Amer-Indian-Eskimo","race_Asian-Pac-Islander","race_Black","race_Other","race_White","sex_Female","sex_Male","native_country_Cambodia","native_country_Canada","native_country_China","native_country_Columbia","native_country_Cuba","native_country_Dominican-Republic","native_country_Ecuador","native_country_El-Salvador","native_country_England","native_country_France","native_country_Germany","native_country_Greece","native_country_Guatemala","native_country_Haiti","native_country_Holand-Netherlands","native_country_Honduras","native_country_Hong","native_country_Hungary","native_country_India","native_country_Iran","native_country_Ireland","native_country_Italy","native_country_Jamaica","native_country_Japan","native_country_Laos","native_country_Mexico","native_country_Nicaragua","native_country_Outlying-US(Guam-USVI-etc)","native_country_Peru","native_country_Philippines","native_country_Poland","native_country_Portugal","native_country_Puerto-Rico","native_country_Scotland","native_country_South","native_country_Taiwan","native_country_Thailand","native_country_Trinadad&Tobago","native_country_United-States","native_country_Vietnam","native_country_Yugoslavia"],"feature_types":["int","int","int","int","int","i","i","i","i","i","i","i","i","i","i","i","i","i","i","i","i","i","i","i","i","i","i","i","i","i","i","i","i","i","i","i","i","i","i","i","i","i","i","i","i","i","i","i","i","i","i","i","i","i","i","i","i","i","i","i","i","i","i","i","i","i","i","i","i","i","i","i","i","i","i","i","i","i","i","i","i","i","i","i","i","i","i","i","i","i","i","i","i","i","i","i","i","i","i","i","i","i","i"],"gradient_booster":{"model":{"gbtree_model_param":{"num_parallel_tree":"1","num_trees":"100","size_leaf_vector":"0"},"tree_info":[0,0,0,0,0,0,0,0,0,0,0,0,0,0,0,0,0,0,0,0,0,0,0,0,0,0,0,0,0,0,0,0,0,0,0,0,0,0,0,0,0,0,0,0,0,0,0,0,0,0,0,0,0,0,0,0,0,0,0,0,0,0,0,0,0,0,0,0,0,0,0,0,0,0,0,0,0,0,0,0,0,0,0,0,0,0,0,0,0,0,0,0,0,0,0,0,0,0,0,0],"trees":[{"base_weights":[5.524734E-10,-1.2699169E0,8.554852E-1,-1.4440203E0,1.667618E0,9.7184084E-2,1.2645617E0,-1.7012436E0,-6.2246794E-1,2.79535E-1,1.9585716E0,-5.5912137E-2,1.9516661E0,8.5062647E-1,1.5583861E0,-1.820841E0,-1.23753E0,-1.5847758E0,-1.9758938E-1,1.4071223E0,-1.6417203E0,5.032708E-1,1.9642775E0,-1.0067639E0,1.7181246E-1,1.9649903E0,6.705404E-1,7.095787E-1,1.96936E0,1.4616549E0,1.9893093E0,-1.8303076E0,4.9147594E-1,-1.5237099E0,-8.160613E-1,-1.79105E0,-8.241584E-1,-7.3447275E-1,4.8752338E-1,1.8812478E0,1.9862783E-1,-1.8461539E0,5.032708E-1,-1.5569667E0,-7.955526E-1,-4.478349E-1,4.2672902E-1,-5.0651982E-2,9.21391E-1,1.3849473E0,1.959509E0,1.9919604E0,5.032708E-1,-1.9421864E0,-1.6800091E0,-6.635623E-1,1.0806322E0,-1.0233055E0,-1.6415602E0,-8.9129514E-1,1.3577363E0,-1.8346139E0,9.370499E-1,-1.6255072E0,7.9669446E-2,-8.563525E-1,4.720093E-1,2.3059197E-1,9.838482E-1,-1.5E0,1.5808756E0,-1.7329184E0,-7.6881546E-1,-9.802982E-1,-3.009904E-1,-5.4286385E-1,1.4896958E0,-8.6614656E-1,5.284317E-1,-1.2666686E0,1.0063656E-1,8.495874E-1,1.8131112E0,1.3954008E0,-1.6363636E0,1.9638447E0,5.032708E-1],"categories":[],"categories_nodes":[],"categories_segments":[],"categories_sizes":[],"default_left":[1,1,1,1,1,1,1,1,1,1,1,1,1,1,1,1,1,1,1,1,1,0,0,1,1,0,0,1,0,1,1,1,1,1,1,1,1,1,1,0,1,0,0,1,1,1,1,1,1,1,1,0,0,0,0,0,0,0,0,0,0,0,0,0,0,0,0,0,0,0,0,0,0,0,0,0,0,0,0,0,0,0,0,0,0,0,0],"id":0,"left_children":[1,3,5,7,9,11,13,15,17,19,21,23,25,27,29,31,33,35,37,39,41,-1,-1,43,45,-1,-1,47,-1,49,51,53,55,57,59,61,63,65,67,-1,69,-1,-1,71,73,75,77,79,81,83,85,-1,-1,-1,-1,-1,-1,-1,-1,-1,-1,-1,-1,-1,-1,-1,-1,-1,-1,-1,-1,-1,-1,-1,-1,-1,-1,-1,-1,-1,-1,-1,-1,-1,-1,-1,-1],"loss_changes":[9.846542E3,1.8681748E3,1.6797502E3,7.268452E2,8.207733E1,5.391954E2,4.2650293E2,1.4319531E2,3.3613654E2,8.1638725E1,4.1455078E-1,3.8017398E2,1.154541E0,2.2938318E2,8.279834E1,4.64917E1,6.3991028E1,3.8045715E1,2.1075081E2,1.3156425E1,7.0701523E0,0E0,0E0,3.8183563E1,2.2397133E2,0E0,0E0,2.0943726E2,0E0,6.1556152E1,4.7155762E-1,3.1620117E1,7.0324926E0,1.7248535E1,3.7332855E1,2.5168457E1,4.0393597E1,4.761847E1,3.1896385E1,0E0,2.061904E1,0E0,0E0,1.157251E1,2.228917E1,7.692943E1,1.3250897E2,5.2429935E1,6.358014E1,4.844702E1,4.151001E-1,0E0,0E0,0E0,0E0,0E0,0E0,0E0,0E0,0E0,0E0,0E0,0E0,0E0,0E0,0E0,0E0,0E0,0E0,0E0,0E0,0E0,0E0,0E0,0E0,0E0,0E0,0E0,0E0,0E0,0E0,0E0,0E0,0E0,0E0,0E0,0E0],"parents":[2147483647,0,0,1,1,2,2,3,3,4,4,5,5,6,6,7,7,8,8,9,9,10,10,11,11,12,12,13,13,14,14,15,15,16,16,17,17,18,18,19,19,20,20,23,23,24,24,27,27,29,29,30,30,31,31,32,32,33,33,34,34,35,35,36,36,37,37,38,38,40,40,43,43,44,44,45,45,46,46,47,47,48,48,49,49,50,50],"right_children":[2,4,6,8,10,12,14,16,18,20,22,24,26,28,30,32,34,36,38,40,42,-1,-1,44,46,-1,-1,48,-1,50,52,54,56,58,60,62,64,66,68,-1,70,-1,-1,72,74,76,78,80,82,84,86,-1,-1,-1,-1,-1,-1,-1,-1,-1,-1,-1,-1,-1,-1,-1,-1,-1,-1,-1,-1,-1,-1,-1,-1,-1,-1,-1,-1,-1,-1,-1,-1,-1,-1,-1,-1],"split_conditions":[5E-1,4.6685E3,9.5E0,1.25E1,7.0735E3,5.0955E3,1.25E1,4.05E1,2.95E1,4.997E3,5.5E0,7.5E0,7E1,5.0955E3,5.0955E3,2.2185E3,3.85E1,4.75E1,4.45E1,4.826E3,6.95E1,1.5098125E-1,5.892833E-1,3.65E1,3.55E1,5.894971E-1,2.0116213E-1,3.35E1,5.9080803E-1,1.7825E3,8.45E1,3.35E1,9.5E0,5E-1,2.1295E3,2.1055E3,2.75E1,1.45E1,5E-1,5.643743E-1,4.8995E3,-5.538462E-1,1.5098125E-1,4.9E1,4.15E1,1.794E3,3.45E1,2.45E1,1.846E3,4.447E3,5E-1,5.975881E-1,1.5098125E-1,-5.826559E-1,-5.0400275E-1,-1.990687E-1,3.2418966E-1,-3.0699167E-1,-4.924681E-1,-2.6738855E-1,4.0732092E-1,-5.503842E-1,2.81115E-1,-4.8765218E-1,2.3900835E-2,-2.5690576E-1,1.416028E-1,6.917759E-2,2.9515448E-1,-4.5000002E-1,4.742627E-1,-5.198755E-1,-2.3064464E-1,-2.9408947E-1,-9.0297125E-2,-1.6285916E-1,4.4690874E-1,-2.5984398E-1,1.5852952E-1,-3.800006E-1,3.0190969E-2,2.5487623E-1,5.439334E-1,4.1862026E-1,-4.909091E-1,5.891534E-1,1.5098125E-1],"split_indices":[30,2,1,1,2,2,1,4,0,2,4,1,0,2,2,3,0,4,4,2,0,0,0,0,0,0,0,0,0,3,0,0,1,7,3,3,0,1,38,0,2,0,0,4,4,3,4,0,3,2,48,0,0,0,0,0,0,0,0,0,0,0,0,0,0,0,0,0,0,0,0,0,0,0,0,0,0,0,0,0,0,0,0,0,0,0,0],"split_type":[0,0,0,0,0,0,0,0,0,0,0,0,0,0,0,0,0,0,0,0,0,0,0,0,0,0,0,0,0,0,0,0,0,0,0,0,0,0,0,0,0,0,0,0,0,0,0,0,0,0,0,0,0,0,0,0,0,0,0,0,0,0,0,0,0,0,0,0,0,0,0,0,0,0,0,0,0,0,0,0,0,0,0,0,0,0,0],"sum_hessian":[9.0615E3,3.647105E3,5.414395E3,3.443521E3,2.0358392E2,1.8977649E3,3.5166301E3,2.621632E3,8.21889E2,3.5618008E1,1.6796591E2,1.7539388E3,1.4382605E2,1.4615359E3,2.0550945E3,2.0817876E3,5.398444E2,2.508986E2,5.7099036E2,2.2613636E1,1.3004371E1,1.0043707E0,1.6696153E2,3.3823514E2,1.4157036E3,1.418173E2,2.0087414E0,1.2993506E3,1.6218532E2,1.6819353E3,3.731591E2,2.073507E3,8.280595E0,3.1996854E2,2.1987587E2,1.9630682E2,5.459178E1,3.2008566E2,2.5090472E2,1.5841784E1,6.771853E0,1.2E1,1.0043707E0,9.2056816E1,2.4617831E2,4.1242657E2,1.0032771E3,2.8329984E2,1.0160507E3,1.4606635E3,2.2127185E2,3.7215472E2,1.0043707E0,1.1818462E3,8.916608E2,2.7543707E0,5.5262237E0,6.2837414E1,2.5713113E2,2.1309091E2,6.784965E0,1.935437E2,2.7631118E0,2.8513111E1,2.607867E1,2.9098077E2,2.9104895E1,1.6628758E2,8.4617134E1,3E0,3.7718532E0,7.427622E1,1.7780594E1,1.7851224E2,6.7666084E1,3.938304E2,1.8596153E1,7.2618004E1,9.306591E2,3.0530594E1,2.5276923E2,9.4213983E2,7.391084E1,1.4561635E3,4.5E0,2.2026749E2,1.0043707E0],"tree_param":{"num_deleted":"0","num_feature":"103","num_nodes":"87","size_leaf_vector":"0"}},{"base_weights":[-6.192772E-4,-9.522815E-1,6.2433165E-1,-1.0817597E0,1.287168E0,2.790417E-1,1.1342069E0,-1.2866565E0,-4.5246875E-1,2.1723376E-1,1.5144712E0,1.6444667E-1,1.5200348E0,1.0498443E0,1.5413414E0,-1.3880951E0,-9.072914E-1,-1.1980245E0,-1.3994747E-1,1.0916947E0,-1.2695758E0,7.357898E-1,1.5262685E0,-7.049257E-1,2.903008E-1,1.5476904E0,1.2305853E0,-3.0401814E-1,1.0703485E0,-1.393917E0,9.38466E-1,-1.3813732E0,-7.2935736E-1,-1.3984073E0,-6.759345E-1,-4.4699422E-1,4.9192563E-1,1.4684424E0,1.5030114E-1,-1.4423274E0,2.207707E-1,-4.802374E-2,1.0495304E0,-7.5505066E-1,7.275153E-1,-5.541046E-1,3.9867616E-1,5.697688E-1,1.3018225E0,-8.6992747E-1,7.234503E-1,1.0089685E0,1.4985865E0,-1.4824857E0,-1.2274264E0,4.30139E-1,1.3141452E0,-1.419438E0,3.337142E-1,-7.6206416E-1,1.2537658E0,-1.4234968E0,4.904695E-1,-1.1072501E0,-9.562475E-2,-4.966896E-1,1.6718011E0,3.312116E-1,1.1543086E0,-1.2126132E0,1.2671478E0,-1.1502652E0,-6.0009414E-1,1.7967731E0,-1.3705965E0,-1.203989E0,-3.5812497E-1,3.324624E-1,1.3788215E0,1.0492233E0,-2.7651468E-1,-1.3725743E0,-2.7702427E-1,3.066411E-1,8.6353415E-1,3.142634E-1,1.0494629E0,1.5410798E0,1.244314E0],"categories":[],"categories_nodes":[],"categories_segments":[],"categories_sizes":[],"default_left":[1,1,1,1,1,1,1,1,1,1,1,1,1,1,0,1,1,1,1,1,1,1,0,1,1,0,1,1,1,1,1,1,1,1,1,1,1,0,1,0,0,0,0,1,1,1,1,1,0,1,1,1,1,0,0,0,0,0,0,0,0,0,0,0,0,0,0,0,0,0,0,0,0,0,0,0,0,0,0,0,0,0,0,0,0,0,0,0,0],"id":1,"left_children":[1,3,5,7,9,11,13,15,17,19,21,23,25,27,-1,29,31,33,35,37,39,41,-1,43,45,-1,47,49,51,53,55,57,59,61,63,65,67,-1,69,-1,-1,-1,-1,71,73,75,77,79,-1,81,83,85,87,-1,-1,-1,-1,-1,-1,-1,-1,-1,-1,-1,-1,-1,-1,-1,-1,-1,-1,-1,-1,-1,-1,-1,-1,-1,-1,-1,-1,-1,-1,-1,-1,-1,-1,-1,-1],"loss_changes":[5.1607583E3,9.9873364E2,9.218098E2,4.1874634E2,4.5502777E1,4.4404984E2,7.1008545E1,9.312891E1,1.8631415E2,4.5836346E1,3.032837E-1,3.1326352E2,2.0855713E-1,4.9035645E1,0E0,2.7496094E1,4.2888275E1,2.3772125E1,1.09853806E2,7.6050186E0,3.6971989E0,1.0950568E0,0E0,2.6549637E1,2.2901315E2,0E0,5.7180786E-1,1.630372E1,4.3928345E1,2.6624756E1,4.7047377E-1,9.67157E0,2.5633896E1,8.745087E0,1.6780334E1,4.092765E1,1.9340397E1,0E0,1.2831901E1,0E0,0E0,0E0,0E0,2.0766388E1,3.1071419E1,3.5841774E1,1.4337851E2,2.1134439E0,0E0,4.9355717E0,3.261037E-1,4.2292114E1,4.0182495E-1,0E0,0E0,0E0,0E0,0E0,0E0,0E0,0E0,0E0,0E0,0E0,0E0,0E0,0E0,0E0,0E0,0E0,0E0,0E0,0E0,0E0,0E0,0E0,0E0,0E0,0E0,0E0,0E0,0E0,0E0,0E0,0E0,0E0,0E0,0E0,0E0],"parents":[2147483647,0,0,1,1,2,2,3,3,4,4,5,5,6,6,7,7,8,8,9,9,10,10,11,11,12,12,13,13,15,15,16,16,17,17,18,18,19,19,20,20,21,21,23,23,24,24,26,26,27,27,28,28,29,29,30,30,31,31,32,32,33,33,34,34,35,35,36,36,38,38,43,43,44,44,45,45,46,46,47,47,49,49,50,50,51,51,52,52],"right_children":[2,4,6,8,10,12,14,16,18,20,22,24,26,28,-1,30,32,34,36,38,40,42,-1,44,46,-1,48,50,52,54,56,58,60,62,64,66,68,-1,70,-1,-1,-1,-1,72,74,76,78,80,-1,82,84,86,88,-1,-1,-1,-1,-1,-1,-1,-1,-1,-1,-1,-1,-1,-1,-1,-1,-1,-1,-1,-1,-1,-1,-1,-1,-1,-1,-1,-1,-1,-1,-1,-1,-1,-1,-1,-1],"split_conditions":[5E-1,4.6685E3,1.15E1,1.25E1,7.0735E3,5.0955E3,5.0955E3,4.05E1,2.95E1,4.997E3,2.25E1,8.5E0,6.05E1,2.55E1,4.6240243E-1,5E-1,2.85E1,4.45E1,4.9E1,4.826E3,6.75E1,9.5E0,4.5788056E-1,1.76E3,2.95E1,4.6430713E-1,7.0325E3,4.45E1,1.7825E3,3.75E1,5E-1,5E-1,2.3915E3,2.1055E3,2.75E1,2.232E3,1.45E1,4.4053274E-1,4.8995E3,-4.3269822E-1,6.623121E-2,-1.4407123E-2,3.1485912E-1,3.65E1,1.9895E3,2.45E1,1.846E3,6.466E3,3.9054677E-1,2.45E1,2.45E1,3.1E1,1.9895E3,-4.4474572E-1,-3.6822793E-1,1.290417E-1,3.9424357E-1,-4.258314E-1,1.0011426E-1,-2.2861926E-1,3.7612978E-1,-4.2704907E-1,1.4714085E-1,-3.3217505E-1,-2.8687427E-2,-1.4900689E-1,5.0154036E-1,9.936348E-2,3.462926E-1,-3.63784E-1,3.8014436E-1,-3.4507957E-1,-1.8002824E-1,5.390319E-1,-4.1117898E-1,-3.6119673E-1,-1.074375E-1,9.9738725E-2,4.1364646E-1,3.14767E-1,-8.295441E-2,-4.117723E-1,-8.3107285E-2,9.199233E-2,2.5906026E-1,9.427903E-2,3.148389E-1,4.6232393E-1,3.732942E-1],"split_indices":[30,2,1,1,2,2,2,4,0,2,0,1,0,0,0,29,0,4,4,2,0,1,0,3,0,0,2,4,3,0,27,56,3,3,0,3,1,0,2,0,0,0,0,0,3,0,3,2,0,0,0,4,3,0,0,0,0,0,0,0,0,0,0,0,0,0,0,0,0,0,0,0,0,0,0,0,0,0,0,0,0,0,0,0,0,0,0,0,0],"split_type":[0,0,0,0,0,0,0,0,0,0,0,0,0,0,0,0,0,0,0,0,0,0,0,0,0,0,0,0,0,0,0,0,0,0,0,0,0,0,0,0,0,0,0,0,0,0,0,0,0,0,0,0,0,0,0,0,0,0,0,0,0,0,0,0,0,0,0,0,0,0,0,0,0,0,0,0,0,0,0,0,0,0,0,0,0,0,0,0,0],"sum_hessian":[8.675304E3,3.438581E3,5.236723E3,3.2511274E3,1.874535E2,3.1232148E3,2.1135083E3,2.4517834E3,7.99344E2,3.3188454E1,1.5426506E2,2.8602297E3,2.6298514E2,1.7537012E3,3.598071E2,1.9324154E3,5.193681E2,2.352631E2,5.640809E2,2.1064943E1,1.2123512E1,3.2480454E0,1.5101701E2,3.611164E2,2.4991133E3,2.360816E2,2.6903542E1,2.5957201E1,1.727744E3,1.9279917E3,4.423629E0,1.3988899E2,3.7947913E2,1.6879832E2,6.646479E1,3.7981134E2,1.8426952E2,1.4644373E1,6.4205694E0,1.0893076E1,1.2304362E0,1.170567E0,2.0774784E0,3.493641E2,1.1752287E1,2.837973E2,2.215316E3,3.49365E0,2.3409893E1,1.6837029E1,9.1201725E0,1.5140842E3,2.136598E2,1.2533419E3,6.746499E2,2.7914777E0,1.6321509E0,1.3702032E2,2.8686652E0,3.7392783E2,5.5513E0,1.6682875E2,1.9695727E0,3.7606037E1,2.8858753E1,3.7185522E2,7.9561167E0,1.4949706E2,3.4772457E1,2.8531075E0,3.567462E0,9.6589836E1,2.5277428E2,7.880025E0,3.8722622E0,6.456178E1,2.1923552E2,2.076385E3,1.389311E2,2.077091E0,1.4165589E0,8.400397E0,8.43663E0,3.0963106E0,6.0238624E0,8.387761E1,1.4302065E3,1.7873024E2,3.4929558E1],"tree_param":{"num_deleted":"0","num_feature":"103","num_nodes":"89","size_leaf_vector":"0"}},{"base_weights":[-1.6379231E-3,-7.666227E-1,4.744596E-1,-8.6888665E-1,1.1056223E0,1.7425532E-2,7.4043983E-1,-1.0567029E0,-3.3924627E-1,1.8354481E-1,1.306592E0,-6.6881716E-2,1.2994664E0,6.5002507E-1,1.3333501E0,-1.1612655E0,-6.9477165E-1,-1.110042E0,-1.3586317E-1,9.2981875E-1,-1.0718006E0,6.254486E-1,1.317874E0,-1.2511845E-1,1.0001713E0,1.3117744E0,3.784775E-1,4.0666822E-1,8.5733837E-1,1.3379803E0,6.749075E-1,-1.1708153E0,7.130678E-1,-9.22591E-1,-3.8742796E-1,-1.1480925E0,8.273429E-1,-4.5678046E-1,2.3447782E-1,1.2643636E0,1.2196442E-1,1.021508E-1,-1.2626363E0,9.6337605E-1,-1.4504267E-1,-5.9171826E-1,-1.6930064E-2,1.4597957E0,-1.0544231E0,-7.3112934E-3,5.7261676E-1,7.962049E-1,1.3092412E0,1.339973E0,4.7658247E-1,1.000843E0,-2.9494086E-1,-1.3159329E0,-1.0548131E0,1.0461726E0,-8.39745E-1,-1.2286663E0,-7.223965E-1,-7.141042E-1,1.6076852E-1,-1.1651256E0,5.1695734E-1,1.1063105E0,1.2857817E-1,-7.864195E-1,-8.230145E-2,2.2887541E-2,6.88803E-1,-1.0370383E0,1.0828031E0,-7.2967935E-1,-8.442181E-2,-3.5355416E-1,1.4798452E-1,1.6575377E-1,1.4801041E0,-1.8080887E0,1.3065255E-1,-1.026336E0,4.25751E-2,6.1949474E-1,-8.511472E-1,8.047423E-1,-2.237987E0],"categories":[],"categories_nodes":[],"categories_segments":[],"categories_sizes":[],"default_left":[1,1,1,1,1,1,1,1,1,1,1,1,1,1,1,1,1,1,1,1,1,1,0,1,1,0,0,1,1,1,1,1,1,1,1,1,1,1,1,0,1,0,0,0,0,1,1,1,1,1,1,1,0,0,0,0,0,0,0,0,0,0,0,0,0,0,0,0,0,0,0,0,0,0,0,0,0,0,0,0,0,0,0,0,0,0,0,0,0],"id":2,"left_children":[1,3,5,7,9,11,13,15,17,19,21,23,25,27,29,31,33,35,37,39,41,43,-1,45,47,-1,-1,49,51,53,55,57,59,61,63,65,67,69,71,-1,73,-1,-1,-1,-1,75,77,79,81,83,85,87,-1,-1,-1,-1,-1,-1,-1,-1,-1,-1,-1,-1,-1,-1,-1,-1,-1,-1,-1,-1,-1,-1,-1,-1,-1,-1,-1,-1,-1,-1,-1,-1,-1,-1,-1,-1,-1],"loss_changes":[2.9120227E3,5.8821545E2,5.990829E2,2.890044E2,2.9279327E1,1.9615775E2,1.6613672E2,8.044238E1,1.1945691E2,2.879198E1,1.7955017E-1,1.05955986E2,7.7285767E-1,1.3612317E2,3.5083008E-1,3.062378E1,3.3511703E1,1.2682022E1,7.1989006E1,5.019497E0,2.711259E0,1.1894436E0,0E0,8.1557106E1,8.4876396E1,0E0,0E0,8.562038E1,3.9286133E1,6.060791E-2,1.8408396E0,2.6491455E1,5.563669E0,1.608995E1,3.729983E1,5.040848E0,5.6860757E-1,3.9976433E1,2.7040062E1,0E0,8.598304E0,0E0,0E0,0E0,0E0,2.1221703E1,7.292615E1,1.6608734E0,1.5163818E1,1.8222721E1,5.9904724E1,3.5175293E1,0E0,0E0,0E0,0E0,0E0,0E0,0E0,0E0,0E0,0E0,0E0,0E0,0E0,0E0,0E0,0E0,0E0,0E0,0E0,0E0,0E0,0E0,0E0,0E0,0E0,0E0,0E0,0E0,0E0,0E0,0E0,0E0,0E0,0E0,0E0,0E0,0E0],"parents":[2147483647,0,0,1,1,2,2,3,3,4,4,5,5,6,6,7,7,8,8,9,9,10,10,11,11,12,12,13,13,14,14,15,15,16,16,17,17,18,18,19,19,20,20,21,21,23,23,24,24,27,27,28,28,29,29,30,30,31,31,32,32,33,33,34,34,35,35,36,36,37,37,38,38,40,40,45,45,46,46,47,47,48,48,49,49,50,50,51,51],"right_children":[2,4,6,8,10,12,14,16,18,20,22,24,26,28,30,32,34,36,38,40,42,44,-1,46,48,-1,-1,50,52,54,56,58,60,62,64,66,68,70,72,-1,74,-1,-1,-1,-1,76,78,80,82,84,86,88,-1,-1,-1,-1,-1,-1,-1,-1,-1,-1,-1,-1,-1,-1,-1,-1,-1,-1,-1,-1,-1,-1,-1,-1,-1,-1,-1,-1,-1,-1,-1,-1,-1,-1,-1,-1,-1],"split_conditions":[5E-1,4.6685E3,9.5E0,1.25E1,7.0735E3,5.0955E3,5.0955E3,4.05E1,2.75E1,4.997E3,2.25E1,1.7825E3,7E1,1.25E1,5E-1,2.2185E3,3.85E1,2.1025E3,4.25E1,4.826E3,8E0,5E-1,3.953622E-1,7.5E0,1.9895E3,3.9353234E-1,1.1354326E-1,3.55E1,1.7825E3,7.85E1,5.55E1,2.85E1,5E-1,5E-1,5E-1,7.85E1,5E-1,4.25E1,5E-1,3.7930912E-1,4.8995E3,3.064524E-2,-3.7879092E-1,2.8901282E-1,-4.3512803E-2,4.75E1,3.65E1,4.5E0,2.2125E3,2.35E1,5E-1,1.532E3,3.9277238E-1,4.019919E-1,1.4297475E-1,3.002529E-1,-8.848226E-2,-3.947799E-1,-3.1644395E-1,3.138518E-1,-2.519235E-1,-3.685999E-1,-2.1671896E-1,-2.1423127E-1,4.823056E-2,-3.495377E-1,1.550872E-1,3.3189315E-1,3.857345E-2,-2.3592587E-1,-2.4690436E-2,6.8662628E-3,2.0664091E-1,-3.111115E-1,3.2484096E-1,-2.1890381E-1,-2.5326544E-2,-1.0606625E-1,4.4395357E-2,4.9726132E-2,4.4403124E-1,-5.4242665E-1,3.9195765E-2,-3.079008E-1,1.277253E-2,1.8584843E-1,-2.5534415E-1,2.414227E-1,-6.7139614E-1],"split_indices":[30,2,1,1,2,2,2,4,0,2,0,3,0,1,39,3,0,3,4,2,1,52,0,1,3,0,0,0,3,0,0,0,23,50,27,4,44,0,38,0,2,0,0,0,0,4,0,1,3,0,39,3,0,0,0,0,0,0,0,0,0,0,0,0,0,0,0,0,0,0,0,0,0,0,0,0,0,0,0,0,0,0,0,0,0,0,0,0,0],"split_type":[0,0,0,0,0,0,0,0,0,0,0,0,0,0,0,0,0,0,0,0,0,0,0,0,0,0,0,0,0,0,0,0,0,0,0,0,0,0,0,0,0,0,0,0,0,0,0,0,0,0,0,0,0,0,0,0,0,0,0,0,0,0,0,0,0,0,0,0,0,0,0,0,0,0,0,0,0,0,0,0,0,0,0,0,0,0,0,0,0],"sum_hessian":[7.993509E3,3.0661938E3,4.927315E3,2.9078975E3,1.582964E2,1.8130372E3,3.1142778E3,2.1459316E3,7.619658E2,2.866958E1,1.2962683E2,1.7020575E3,1.1097979E2,2.704028E3,4.102496E2,1.663217E3,4.8271466E2,1.5814789E2,6.0381793E2,1.8143187E1,1.0526394E1,3.031618E0,1.26595215E2,1.6148085E3,8.724893E1,1.0909751E2,1.8822793E0,1.2452456E3,1.4587825E3,4.0635995E2,3.8896265E0,1.6551592E3,8.057818E0,2.7607303E2,2.0664163E2,1.5550122E2,2.6466696E0,3.2336984E2,2.804481E2,1.2430455E1,5.7127304E0,1.5368671E0,8.989527E0,1.9333401E0,1.0982779E0,3.0310294E2,1.3117056E3,7.153552E1,1.5713403E1,3.566052E2,8.8864044E2,1.2873866E3,1.7139587E2,4.048678E2,1.4921702E0,2.8873281E0,1.0022985E0,7.307074E2,9.2445184E2,6.90323E0,1.154588E0,1.0713621E2,1.6893683E2,1.2929231E2,7.7349335E1,1.5422379E2,1.2774303E0,1.4746917E0,1.1719779E0,1.7139638E2,1.5197346E2,1.9205417E2,8.8393906E1,2.5534046E0,3.159326E0,2.3795253E2,6.515042E1,4.3093533E2,8.8077026E2,1.2468762E0,7.028865E1,9.28363E0,6.4297714E0,1.572937E1,3.4087582E2,8.6086115E2,2.7779285E1,1.2845072E3,2.879457E0],"tree_param":{"num_deleted":"0","num_feature":"103","num_nodes":"89","size_leaf_vector":"0"}},{"base_weights":[-2.5291513E-3,-6.326967E-1,3.6552522E-1,-7.0674384E-1,1.1832982E0,1.6507399E-1,7.639811E-1,-8.8895595E-1,-2.4767014E-1,7.3788106E-1,1.2163917E0,9.679999E-2,1.1918982E0,6.8364555E-1,1.2193815E0,-1.1587585E0,-7.23866E-1,-7.222452E-1,5.253218E-3,-1.2671301E-1,1.0750995E0,-2.4684982E-3,7.1234363E-1,1.2269555E0,8.736922E-1,6.23759E-1,1.1825668E0,1.2226169E0,4.0684223E-1,-1.166443E0,9.1389567E-1,-4.5855135E-1,-9.469146E-1,2.4248579E-1,-8.4332263E-1,-1.3183914E-1,9.0827984E-1,-9.714614E-1,7.2111505E-1,5.313469E-2,-8.4864104E-1,8.317581E-1,-7.6206215E-2,3.8182268E-1,9.3968946E-1,-6.476559E-2,6.680645E-1,1.2263356E0,4.8022315E-1,-8.998697E-1,-1.1969757E0,-7.2092825E-1,-5.2566763E-2,-1.0173813E0,-4.2941126E-1,4.5005396E-2,1.9989034E0,-9.0008223E-1,3.339177E-1,1.6299053E-1,-4.1624022E-1,1.0371249E0,-5.057444E-1,-5.5107147E-1,1.1104321E-1,-8.946508E-1,1.0563662E0,-7.491359E-1,8.7949383E-1,-2.159412E-1,1.1331304E0,8.400753E-1,-3.6277232E-1,1.0042726E0,3.5533956E-1,-5.527217E-1,8.639902E-1,6.8628746E-1,-8.601604E-1],"categories":[],"categories_nodes":[],"categories_segments":[],"categories_sizes":[],"default_left":[1,1,1,1,1,1,1,1,1,1,0,1,1,1,1,1,1,1,1,1,0,1,1,0,1,1,0,1,0,1,0,1,1,1,1,1,1,0,0,1,1,1,1,1,1,1,1,0,0,0,0,0,0,0,0,0,0,0,0,0,0,0,0,0,0,0,0,0,0,0,0,0,0,0,0,0,0,0,0],"id":3,"left_children":[1,3,5,7,9,11,13,15,17,19,-1,21,23,25,27,29,31,33,35,37,-1,39,41,-1,43,45,-1,47,-1,49,-1,51,53,55,57,59,61,-1,-1,63,65,67,69,71,73,75,77,-1,-1,-1,-1,-1,-1,-1,-1,-1,-1,-1,-1,-1,-1,-1,-1,-1,-1,-1,-1,-1,-1,-1,-1,-1,-1,-1,-1,-1,-1,-1,-1],"loss_changes":[1.690346E3,3.621753E2,3.6734723E2,2.158031E2,6.597595E-1,2.145639E2,5.549243E1,8.148926E1,8.824672E1,3.0076861E0,0E0,1.7551768E2,1.0567627E0,3.8433594E1,1.0620117E-1,1.2214844E1,6.758215E1,3.0060013E1,5.961342E1,3.3204186E0,0E0,1.1647024E2,3.7625946E1,0E0,3.6869812E-1,3.581476E1,0E0,4.1046143E-2,0E0,4.602844E0,0E0,5.6085716E1,2.2299194E1,1.0065352E1,1.5489899E1,3.5125668E1,1.2087769E1,0E0,0E0,8.133527E1,1.4323463E1,2.6809433E1,9.26513E0,1.7841415E0,3.6301422E-1,3.3019596E1,3.127475E1,0E0,0E0,0E0,0E0,0E0,0E0,0E0,0E0,0E0,0E0,0E0,0E0,0E0,0E0,0E0,0E0,0E0,0E0,0E0,0E0,0E0,0E0,0E0,0E0,0E0,0E0,0E0,0E0,0E0,0E0,0E0,0E0],"parents":[2147483647,0,0,1,1,2,2,3,3,4,4,5,5,6,6,7,7,8,8,9,9,11,11,12,12,13,13,14,14,15,15,16,16,17,17,18,18,19,19,21,21,22,22,24,24,25,25,27,27,29,29,31,31,32,32,33,33,34,34,35,35,36,36,39,39,40,40,41,41,42,42,43,43,44,44,45,45,46,46],"right_children":[2,4,6,8,10,12,14,16,18,20,-1,22,24,26,28,30,32,34,36,38,-1,40,42,-1,44,46,-1,48,-1,50,-1,52,54,56,58,60,62,-1,-1,64,66,68,70,72,74,76,78,-1,-1,-1,-1,-1,-1,-1,-1,-1,-1,-1,-1,-1,-1,-1,-1,-1,-1,-1,-1,-1,-1,-1,-1,-1,-1,-1,-1,-1,-1,-1,-1],"split_conditions":[5E-1,7.0735E3,1.25E1,1.25E1,3.55E1,5.0955E3,5.0955E3,2.85E1,3.25E1,3.55E1,3.6491752E-1,5E-1,6.05E1,1.7825E3,7.85E1,5E-1,5E-1,5E-1,1.45E1,9.5E0,3.2252985E-1,5E-1,5E-1,3.6808667E-1,7.0325E3,3.1E1,3.5477003E-1,5E-1,1.2205268E-1,5E-1,2.741687E-1,9.5E0,5E-1,5E-1,1.534E3,5E-1,5E-1,-2.9143843E-1,2.1633452E-1,3.65E1,1.794E3,2.65E1,9.435E2,6.466E3,5E-1,5E-1,3.12E3,3.679007E-1,1.4406694E-1,-2.699609E-1,-3.590927E-1,-2.1627848E-1,-1.577003E-2,-3.052144E-1,-1.2882338E-1,1.3501619E-2,5.9967107E-1,-2.700247E-1,1.0017531E-1,4.889716E-2,-1.24872066E-1,3.1113747E-1,-1.5172333E-1,-1.6532144E-1,3.3312965E-2,-2.6839525E-1,3.1690988E-1,-2.2474079E-1,2.6384816E-1,-6.4782366E-2,3.3993915E-1,2.520226E-1,-1.08831696E-1,3.0128178E-1,1.0660187E-1,-1.6581652E-1,2.5919706E-1,2.0588624E-1,-2.5804815E-1],"split_indices":[30,2,1,1,4,2,2,0,0,0,0,38,0,3,0,29,60,32,1,1,0,42,9,0,2,4,0,39,0,7,0,1,38,29,3,60,6,0,0,4,3,0,3,2,37,54,2,0,0,0,0,0,0,0,0,0,0,0,0,0,0,0,0,0,0,0,0,0,0,0,0,0,0,0,0,0,0,0,0],"split_type":[0,0,0,0,0,0,0,0,0,0,0,0,0,0,0,0,0,0,0,0,0,0,0,0,0,0,0,0,0,0,0,0,0,0,0,0,0,0,0,0,0,0,0,0,0,0,0,0,0,0,0,0,0,0,0,0,0,0,0,0,0,0,0,0,0,0,0,0,0,0,0,0,0,0,0,0,0,0,0],"sum_hessian":[7.2859897E3,2.6861519E3,4.599838E3,2.5815022E3,1.0464984E2,3.0612358E3,1.5386019E3,1.8473351E3,7.34167E2,8.848697E0,9.580115E1,2.8714087E3,1.8982698E2,1.310009E3,2.2859288E2,6.989838E2,1.1483512E3,2.5459665E2,4.7957037E2,2.6580257E0,6.1906705E0,2.4735037E3,3.97905E2,1.6841638E2,2.1410593E1,1.1716265E3,1.3838252E2,2.2718356E2,1.4093276E0,6.968375E2,2.146356E0,5.258786E2,6.224726E2,2.827801E1,2.2631863E2,4.1710226E2,6.246809E1,1.2583865E0,1.3996391E0,2.3218677E3,1.5163599E2,3.4552542E2,5.2379604E1,3.33567E0,1.8074923E1,7.080632E1,1.1008202E3,2.2540263E2,1.7809241E0,7.474348E1,6.22094E2,3.1896463E2,2.06914E2,5.470207E2,7.545194E1,2.6341917E1,1.9360937E0,2.1613339E2,1.0185247E1,2.0500595E2,2.1209633E2,5.7495667E1,4.9724255E0,2.0232562E2,2.1195422E3,1.485779E2,3.0580893E0,9.696804E0,3.358286E2,4.769055E1,4.689053E0,1.9854907E0,1.3501793E0,1.5628972E1,2.4459507E0,4.6684025E1,2.4122295E1,1.0883928E3,1.2427401E1],"tree_param":{"num_deleted":"0","num_feature":"103","num_nodes":"79","size_leaf_vector":"0"}},{"base_weights":[-2.3988648E-3,-5.195827E-1,2.794952E-1,-5.877676E-1,9.276888E-1,2.0942605E-1,1.1330734E0,-7.7431494E-1,-1.3328737E-1,3.3628824E-1,1.1219555E0,-6.624E-2,4.0202934E-1,1.1372765E0,2.1152294E-1,-1.0175363E0,-5.472104E-1,-5.3728208E-2,-9.4504887E-1,1.1594566E0,-2.2281376E-1,3.961367E-1,1.1402351E0,-6.63801E-1,-4.8326314E-3,2.9758677E-1,7.275172E-1,1.1401032E0,2.6168722E-1,-1.0337055E0,1.4297634E0,-6.707997E-1,2.4628852E-2,-1.3381157E-2,-1.5154997E0,-1.0354846E0,1.5601712E0,-9.651452E-1,2.784173E-1,-5.7051715E-2,6.7229295E-1,-7.776569E-1,2.5284484E-1,-4.092047E-2,9.7791576E-1,1.5219441E-1,6.180726E-1,2.0510821E-4,7.698189E-1,1.1475335E0,6.642933E-1,-1.0878649E0,-8.7006426E-1,2.7647296E-1,1.8070772E0,-8.113199E-1,8.947597E-2,5.419173E-1,-2.4762174E-1,-5.0370578E-2,1.477069E0,-1.1220345E0,1.2532942E0,-1.1953493E0,-2.645305E-1,6.812341E-1,-2.6923016E-1,-1.1385465E0,-5.88189E-1,5.2399236E-1,-1.1604465E0,-8.307442E-2,7.9198897E-1,1.0599182E0,-2.4523859E-1,1.00474596E-1,1.028141E0,6.701312E-2,7.113273E-1,-1.1851141E-1,8.9729863E-1,8.24874E-1,2.2368112E-1,9.3903166E-1,9.4461456E-2],"categories":[],"categories_nodes":[],"categories_segments":[],"categories_sizes":[],"default_left":[1,1,1,1,1,1,1,1,1,1,1,1,1,1,0,1,1,1,1,0,1,1,0,1,1,1,1,1,0,1,1,1,1,1,0,1,0,1,1,0,0,1,1,1,1,1,1,1,1,0,1,0,0,0,0,0,0,0,0,0,0,0,0,0,0,0,0,0,0,0,0,0,0,0,0,0,0,0,0,0,0,0,0,0,0],"id":4,"left_children":[1,3,5,7,9,11,13,15,17,19,21,23,25,27,-1,29,31,33,35,-1,37,39,-1,41,43,45,47,49,-1,51,53,55,57,59,-1,61,-1,63,65,-1,-1,67,69,71,73,75,77,79,81,-1,83,-1,-1,-1,-1,-1,-1,-1,-1,-1,-1,-1,-1,-1,-1,-1,-1,-1,-1,-1,-1,-1,-1,-1,-1,-1,-1,-1,-1,-1,-1,-1,-1,-1,-1],"loss_changes":[9.791948E2,2.3436047E2,2.5975763E2,1.9179144E2,1.1915108E1,2.1338577E2,1.0359192E0,8.807068E1,4.2566494E1,1.3091335E1,6.111679E-1,6.0678886E1,8.020834E1,5.130615E-1,0E0,3.2089905E1,5.8810028E1,3.5487072E1,1.4946587E1,0E0,6.7592673E0,4.7642612E-1,0E0,1.6279015E1,5.3259468E1,8.3442184E1,1.7660767E1,3.918457E-1,0E0,5.869751E0,1.8925085E0,7.315759E1,2.1091177E1,3.242963E1,0E0,1.2775192E1,0E0,8.5389185E-1,2.6517467E0,0E0,0E0,8.7196045E0,7.421601E0,5.092026E1,5.595234E0,5.5828987E1,2.8687195E1,3.5730867E0,1.6126495E1,0E0,1.068933E0,0E0,0E0,0E0,0E0,0E0,0E0,0E0,0E0,0E0,0E0,0E0,0E0,0E0,0E0,0E0,0E0,0E0,0E0,0E0,0E0,0E0,0E0,0E0,0E0,0E0,0E0,0E0,0E0,0E0,0E0,0E0,0E0,0E0,0E0],"parents":[2147483647,0,0,1,1,2,2,3,3,4,4,5,5,6,6,7,7,8,8,9,9,10,10,11,11,12,12,13,13,15,15,16,16,17,17,18,18,20,20,21,21,23,23,24,24,25,25,26,26,27,27,29,29,30,30,31,31,32,32,33,33,35,35,37,37,38,38,41,41,42,42,43,43,44,44,45,45,46,46,47,47,48,48,50,50],"right_children":[2,4,6,8,10,12,14,16,18,20,22,24,26,28,-1,30,32,34,36,-1,38,40,-1,42,44,46,48,50,-1,52,54,56,58,60,-1,62,-1,64,66,-1,-1,68,70,72,74,76,78,80,82,-1,84,-1,-1,-1,-1,-1,-1,-1,-1,-1,-1,-1,-1,-1,-1,-1,-1,-1,-1,-1,-1,-1,-1,-1,-1,-1,-1,-1,-1,-1,-1,-1,-1,-1,-1],"split_conditions":[5E-1,4.6685E3,5.0955E3,4.45E1,7.6695E3,9.5E0,8.65E1,3.35E1,5E-1,4.826E3,2.5E1,2.85E1,5E-1,5E-1,6.3456886E-2,5E-1,5E-1,5.7E1,5.35E1,3.47837E-1,3.95E1,6.15E1,3.4207052E-1,5.8E1,5E-1,5E-1,2.85E1,5E-1,7.850617E-2,2.85E1,9.5E0,5E-1,5E-1,2.3915E3,-4.5464993E-1,5E-1,4.680514E-1,5E-1,5E-1,-1.7115515E-2,2.0168789E-1,2.45E1,5E-1,1.7825E3,6.1E1,1.846E3,3.25E1,5E-1,5E-1,3.4426007E-1,5.45E1,-3.2635948E-1,-2.610193E-1,8.294189E-2,5.421232E-1,-2.4339597E-1,2.6842792E-2,1.625752E-1,-7.428653E-2,-1.51111735E-2,4.4312072E-1,-3.3661038E-1,3.7598827E-1,-3.5860482E-1,-7.935916E-2,2.0437025E-1,-8.076905E-2,-3.4156394E-1,-1.764567E-1,1.5719771E-1,-3.4813398E-1,-2.4922328E-2,2.375967E-1,3.1797546E-1,-7.357158E-2,3.014238E-2,3.0844232E-1,2.0103937E-2,2.133982E-1,-3.5553426E-2,2.691896E-1,2.474622E-1,6.710434E-2,2.8170952E-1,2.8338438E-2],"split_indices":[30,2,2,4,2,1,0,0,52,2,4,0,38,17,0,29,44,2,0,0,0,0,0,4,5,44,0,39,0,0,1,38,60,3,0,31,0,28,60,0,0,0,48,3,0,3,0,57,9,0,0,0,0,0,0,0,0,0,0,0,0,0,0,0,0,0,0,0,0,0,0,0,0,0,0,0,0,0,0,0,0,0,0,0,0],"split_type":[0,0,0,0,0,0,0,0,0,0,0,0,0,0,0,0,0,0,0,0,0,0,0,0,0,0,0,0,0,0,0,0,0,0,0,0,0,0,0,0,0,0,0,0,0,0,0,0,0,0,0,0,0,0,0,0,0,0,0,0,0,0,0,0,0,0,0,0,0,0,0,0,0,0,0,0,0,0,0,0,0,0,0,0,0],"sum_hessian":[6.7144297E3,2.3683801E3,4.34605E3,2.262387E3,1.059933E2,4.0175032E3,3.2854645E2,1.6035039E3,6.58883E2,2.6883556E1,7.910974E1,1.6527042E3,2.364799E3,3.2682175E2,1.7246749E0,7.7259753E2,8.309063E2,6.0104224E2,5.784079E1,1.0439561E1,1.6443996E1,2.500342E0,7.6609406E1,1.5309662E2,1.4996077E3,1.7917699E3,5.7302905E2,3.254689E2,1.3528504E0,7.6810034E2,4.497194E0,6.83098E2,1.478083E2,5.858802E2,1.5162004E1,5.6391777E1,1.449012E0,6.2548747E0,1.0189121E1,1.2471325E0,1.2532091E0,1.3631647E2,1.6780142E1,1.447415E3,5.2192654E1,1.2336049E3,5.5816504E2,3.1551666E1,5.4147736E2,3.1907446E2,6.394447E0,5.7285724E2,1.9524313E2,1.5357592E0,2.9614344E0,5.764811E2,1.0661697E2,5.062603E1,9.7182274E1,5.72635E2,1.3245231E1,5.482822E1,1.5635575E0,4.176454E0,2.0784204E0,5.730315E0,4.458806E0,4.5204292E1,9.1112175E1,1.4606958E1,2.173183E0,1.3785464E3,6.886865E1,4.9038486E1,3.1541686E0,1.1658807E3,6.772414E1,8.103465E1,4.771304E2,2.8630726E1,2.9209416E0,4.9142715E2,5.005022E1,3.8771904E0,2.5172565E0],"tree_param":{"num_deleted":"0","num_feature":"103","num_nodes":"85","size_leaf_vector":"0"}},{"base_weights":[-2.1278965E-3,-4.238716E-1,2.1359588E-1,-9.250242E-1,-2.5867203E-1,1.564426E-1,1.0774474E0,-9.471759E-1,7.6566523E-1,-6.4678943E-1,-4.9763445E-2,7.332183E-2,5.481761E-1,1.1096218E0,8.06225E-1,-9.6203053E-1,8.4557426E-1,9.4459164E-1,-7.595944E-2,-6.844849E-1,9.5951414E-1,-1.0446611E-1,1.098269E0,-1.2181407E-2,4.8986694E-1,6.171206E-1,2.700562E-2,8.635357E-1,1.8317138E-1,-9.743527E-1,7.9550654E-1,1.1525446E0,4.967108E-2,-8.1788135E-1,-3.6871377E-1,1.0247576E0,2.7881873E-1,-1.0480036E-2,-7.7030605E-1,2.8976517E-2,-7.761259E-1,3.8204432E-1,8.322235E-1,-6.590421E-1,6.376281E-1,-7.354451E-2,1.0306958E0,5.456032E-1,1.0536859E0,-2.9865667E-1,7.1144557E-1,-1.0807583E0,-8.0596215E-1,2.5934553E-1,9.307847E-1,-8.687971E-1,-1.2364616E-1,-5.2060264E-1,3.547272E-1,-7.798703E-1,5.9957653E-2,-8.914928E-1,2.4944925E-1,-1.0717574E-1,2.7876994E-1,-1.0587682E0,-5.0849736E-1,4.073259E-1,-8.4000564E-1,8.556727E-1,-4.754262E-1,6.419884E-1,-1.5079216E0,6.5604407E-1,-6.9840074E-1,-4.3829926E-3,-1.7241678E0,2.6025015E-1,8.0541384E-1],"categories":[],"categories_nodes":[],"categories_segments":[],"categories_sizes":[],"default_left":[1,1,1,1,1,1,1,1,1,1,1,1,1,0,1,1,1,0,0,1,1,1,0,1,1,1,1,1,1,1,1,0,0,1,1,0,0,1,1,1,1,1,1,1,1,1,0,1,0,0,0,0,0,0,0,0,0,0,0,0,0,0,0,0,0,0,0,0,0,0,0,0,0,0,0,0,0,0,0],"id":5,"left_children":[1,3,5,7,9,11,13,15,17,19,21,23,25,-1,27,29,31,-1,-1,33,35,37,-1,39,41,43,45,47,49,51,53,-1,-1,55,57,-1,-1,59,61,63,65,67,69,71,73,75,-1,77,-1,-1,-1,-1,-1,-1,-1,-1,-1,-1,-1,-1,-1,-1,-1,-1,-1,-1,-1,-1,-1,-1,-1,-1,-1,-1,-1,-1,-1,-1,-1],"loss_changes":[5.664613E2,1.7419913E2,2.0320532E2,2.0273895E1,1.285643E2,1.258013E2,1.3345642E0,1.4545929E1,1.1715751E0,3.4255585E1,6.493313E1,1.13600044E2,2.428595E1,0E0,9.397259E-1,1.1861084E1,1.1081188E0,0E0,0E0,2.2560577E1,2.9781818E-1,6.170192E1,0E0,8.325692E1,1.9733978E1,1.6051773E1,8.156127E0,1.1110611E0,1.1947895E0,8.245148E0,5.7032585E-2,0E0,0E0,1.335083E1,1.8096682E1,0E0,0E0,4.6932293E1,1.5294472E1,8.549145E1,9.701035E0,1.3162304E1,4.370224E0,1.1943935E1,1.4934067E1,8.406972E0,0E0,7.1791816E-1,0E0,0E0,0E0,0E0,0E0,0E0,0E0,0E0,0E0,0E0,0E0,0E0,0E0,0E0,0E0,0E0,0E0,0E0,0E0,0E0,0E0,0E0,0E0,0E0,0E0,0E0,0E0,0E0,0E0,0E0,0E0],"parents":[2147483647,0,0,1,1,2,2,3,3,4,4,5,5,6,6,7,7,8,8,9,9,10,10,11,11,12,12,14,14,15,15,16,16,19,19,20,20,21,21,23,23,24,24,25,25,26,26,27,27,28,28,29,29,30,30,33,33,34,34,37,37,38,38,39,39,40,40,41,41,42,42,43,43,44,44,45,45,47,47],"right_children":[2,4,6,8,10,12,14,16,18,20,22,24,26,-1,28,30,32,-1,-1,34,36,38,-1,40,42,44,46,48,50,52,54,-1,-1,56,58,-1,-1,60,62,64,66,68,70,72,74,76,-1,78,-1,-1,-1,-1,-1,-1,-1,-1,-1,-1,-1,-1,-1,-1,-1,-1,-1,-1,-1,-1,-1,-1,-1,-1,-1,-1,-1,-1,-1,-1,-1],"split_conditions":[5E-1,2.75E1,5.0955E3,7.7315E3,9.5E0,5E-1,6.05E1,2.218E3,5E-1,8.0285E3,7.0735E3,5E-1,5E-1,3.3288655E-1,5E-1,5E-1,2.4E1,2.833775E-1,-2.2787832E-2,4.15E1,3.09615E4,5E-1,3.294807E-1,5E-1,1.45E1,2.1E1,1.7485E3,1.05855E4,7.1E1,2.35E1,2.3E1,3.457634E-1,1.4901324E-2,5E-1,5.35E1,3.074273E-1,8.364562E-2,3.45E1,5E-1,4.15E1,4.95E1,6.45E1,1.4425E3,5E-1,3.12E3,6.9E1,3.0920875E-1,1.05E1,3.1610578E-1,-8.9597E-2,2.1343368E-1,-3.242275E-1,-2.4178866E-1,7.7803664E-2,2.7923542E-1,-2.6063916E-1,-3.709385E-2,-1.561808E-1,1.0641817E-1,-2.3396109E-1,1.7987296E-2,-2.6744786E-1,7.483478E-2,-3.2152724E-2,8.363099E-2,-3.1763047E-1,-1.525492E-1,1.2219777E-1,-2.520017E-1,2.5670183E-1,-1.4262787E-1,1.9259652E-1,-4.5237648E-1,1.9681323E-1,-2.0952024E-1,-1.3148978E-3,-5.1725036E-1,7.807505E-2,2.4162416E-1],"split_indices":[30,0,2,2,1,38,0,3,23,2,2,44,9,0,39,29,0,0,0,4,2,35,0,39,1,4,3,2,0,0,0,0,0,38,0,0,0,4,5,4,4,0,2,49,2,0,0,1,0,0,0,0,0,0,0,0,0,0,0,0,0,0,0,0,0,0,0,0,0,0,0,0,0,0,0,0,0,0,0],"split_type":[0,0,0,0,0,0,0,0,0,0,0,0,0,0,0,0,0,0,0,0,0,0,0,0,0,0,0,0,0,0,0,0,0,0,0,0,0,0,0,0,0,0,0,0,0,0,0,0,0,0,0,0,0,0,0,0,0,0,0,0,0,0,0,0,0,0,0,0,0,0,0,0,0,0,0,0,0,0,0],"sum_hessian":[6.2242124E3,2.1059937E3,4.1182188E3,5.2096985E2,1.5850238E3,3.863769E3,2.5444974E2,5.146664E2,6.3034897E0,5.538908E2,1.0311329E3,3.1884158E3,6.7535333E2,2.2470276E2,2.9746979E1,5.108965E2,3.769866E0,5.0974474E0,1.2060423E0,5.417513E2,1.2139516E1,9.851028E2,4.6030212E1,2.646206E3,5.422097E2,5.9628766E2,7.9065704E1,2.6887774E1,2.8592048E0,5.0778204E2,3.1144853E0,2.3971987E0,1.3726674E0,3.7974094E2,1.6201038E2,1.0616486E1,1.5230294E0,8.6414136E2,1.209614E2,2.5118413E3,1.3436475E2,4.1395395E2,1.2825577E2,8.938146E0,5.873495E2,7.2708466E1,6.3572407E0,1.1510862E1,1.5376911E1,1.7226589E0,1.1365459E0,3.0784042E2,1.9994162E2,1.2152189E0,1.8992664E0,3.5355914E2,2.6181774E1,1.3412976E2,2.788062E1,7.163216E1,7.925092E2,1.0822574E2,1.2735665E1,1.6260942E3,8.857471E2,6.391162E1,7.045312E1,4.062169E2,7.737066E0,1.2633591E2,1.9198568E0,3.6254075E0,5.3127384E0,5.7986554E2,7.4839716E0,7.074681E1,1.9616532E0,6.4397273E0,5.071135E0],"tree_param":{"num_deleted":"0","num_feature":"103","num_nodes":"79","size_leaf_vector":"0"}},{"base_weights":[-2.3948858E-3,-6.3038826E-1,9.465778E-2,-9.18048E-1,-3.7956706E-1,5.1917598E-2,1.038944E0,-9.879804E-1,-3.965626E-1,-4.5313764E-1,3.1986034E-1,9.929058E-2,-7.416319E-1,1.0428051E0,1.8365848E-1,-1.011185E0,5.0012845E-1,-7.2131306E-1,2.0359646E-1,-1.1672045E0,-3.6908674E-1,4.961753E-1,-2.559089E-1,-1.5836981E-1,1.9666032E-1,-8.2332176E-1,1.0104629E-1,1.0455832E0,3.3575085E-1,-1.0301471E0,4.4158512E-1,-7.5917155E-1,9.9293536E-1,-9.098473E-1,2.1562009E-1,-1.0930352E0,5.050582E-1,-9.8909837E-1,-1.6634959E0,-4.8680472E-1,-9.160564E-2,-7.928936E-1,5.8503425E-1,-8.0586106E-1,8.9799523E-1,6.790983E-2,-4.056346E-1,1.5736835E-1,8.5288405E-1,-8.4165907E-1,1.3423823E0,-2.585977E-1,1.3533163E0,-1.0428724E0,6.4606684E-1,-8.261235E-1,1.0019857E0,-1.0225353E0,8.701402E-1,7.011632E-1,-6.997566E-1,1.614649E-1,1.5488932E0,-1.0611978E0,3.7437022E-1,-6.875309E-1,-3.0552173E-1,-2.0478134E-1,6.904686E-1,3.474557E-1,1.0191983E0,-1.012808E0,-2.1950951E-1,1.5482616E-1,-7.3621064E-1,-5.0696677E-1,6.754409E-2,1.737593E-1,-2.2487502E0,1.1353842E0,-3.5015976E-1,-1.0189266E0,-6.703565E-1,-6.7482024E-1,9.0092534E-1,1.1986663E-1,2.0231943E0],"categories":[],"categories_nodes":[],"categories_segments":[],"categories_sizes":[],"default_left":[1,1,1,1,1,1,1,1,1,1,1,1,1,1,0,1,1,1,1,1,1,1,1,1,1,1,1,0,0,1,1,0,0,1,1,0,1,1,0,1,1,0,1,1,0,1,1,1,1,1,0,1,1,0,0,0,0,0,0,0,0,0,0,0,0,0,0,0,0,0,0,0,0,0,0,0,0,0,0,0,0,0,0,0,0,0,0],"id":6,"left_children":[1,3,5,7,9,11,13,15,17,19,21,23,25,27,-1,29,31,33,35,37,39,41,43,45,47,49,51,-1,-1,53,55,-1,-1,57,59,-1,61,63,-1,65,67,-1,69,71,-1,73,75,77,79,81,-1,83,85,-1,-1,-1,-1,-1,-1,-1,-1,-1,-1,-1,-1,-1,-1,-1,-1,-1,-1,-1,-1,-1,-1,-1,-1,-1,-1,-1,-1,-1,-1,-1,-1,-1,-1],"loss_changes":[3.566004E2,5.6158813E1,2.0447305E2,1.2886261E1,2.1761307E1,1.8237274E2,5.3297424E-1,1.1568512E1,8.86347E0,2.240699E1,4.2453027E0,1.1486058E2,1.889679E1,7.752991E-2,0E0,9.153961E0,4.221707E0,5.361289E0,6.9949455E0,1.8558846E0,1.1123577E1,4.0603256E0,7.177643E0,7.029266E1,8.552579E1,1.1028656E1,1.1628777E1,0E0,0E0,7.3291626E0,4.2154713E0,0E0,0E0,5.810774E0,3.0269842E0,0E0,4.7917037E0,3.5052986E0,0E0,8.5169525E0,9.264769E0,0E0,2.7349863E0,6.774025E-1,0E0,4.6004513E1,2.8814377E1,1.2405898E2,6.410579E1,6.8411407E0,0E0,1.0402899E1,4.506837E0,0E0,0E0,0E0,0E0,0E0,0E0,0E0,0E0,0E0,0E0,0E0,0E0,0E0,0E0,0E0,0E0,0E0,0E0,0E0,0E0,0E0,0E0,0E0,0E0,0E0,0E0,0E0,0E0,0E0,0E0,0E0,0E0,0E0,0E0],"parents":[2147483647,0,0,1,1,2,2,3,3,4,4,5,5,6,6,7,7,8,8,9,9,10,10,11,11,12,12,13,13,15,15,16,16,17,17,18,18,19,19,20,20,21,21,22,22,23,23,24,24,25,25,26,26,29,29,30,30,33,33,34,34,36,36,37,37,39,39,40,40,42,42,43,43,45,45,46,46,47,47,48,48,49,49,51,51,52,52],"right_children":[2,4,6,8,10,12,14,16,18,20,22,24,26,28,-1,30,32,34,36,38,40,42,44,46,48,50,52,-1,-1,54,56,-1,-1,58,60,-1,62,64,-1,66,68,-1,70,72,-1,74,76,78,80,82,-1,84,86,-1,-1,-1,-1,-1,-1,-1,-1,-1,-1,-1,-1,-1,-1,-1,-1,-1,-1,-1,-1,-1,-1,-1,-1,-1,-1,-1,-1,-1,-1,-1,-1,-1,-1],"split_conditions":[2.85E1,2.45E1,7.0735E3,4.95E1,5E-1,5E-1,5E-1,1.832E3,5E-1,3.75E1,5E-1,5E-1,5.55E1,8.65E1,5.5097546E-2,4.2435E3,2.25E1,5E-1,2.15E1,5E-1,4.9E1,8.5E0,5E-1,5E-1,1.846E3,5E-1,5E-1,3.13675E-1,1.00725256E-1,5E-1,3.5E1,-2.2775148E-1,2.9788062E-1,5E-1,9.5E0,-3.2791057E-1,6.75E1,5E-1,-4.990488E-1,5E-1,5E-1,-2.3786809E-1,4.1E1,5E-1,2.6939857E-1,5E-1,1.35E1,1.512E3,1.9895E3,5E-1,4.027147E-1,1.05E1,4.45E1,-3.1286174E-1,1.9382006E-1,-2.4783705E-1,3.005957E-1,-3.067606E-1,2.6104206E-1,2.1034896E-1,-2.09927E-1,4.8439473E-2,4.6466798E-1,-3.1835935E-1,1.1231107E-1,-2.0625927E-1,-9.165652E-2,-6.1434403E-2,2.071406E-1,1.04236715E-1,3.057595E-1,-3.038424E-1,-6.585286E-2,4.644785E-2,-2.2086321E-1,-1.5209004E-1,2.0263227E-2,5.212779E-2,-6.746251E-1,3.4061527E-1,-1.05047934E-1,-3.05678E-1,-2.0110697E-1,-2.0244609E-1,2.7027762E-1,3.5959993E-2,6.069583E-1],"split_indices":[0,0,2,4,54,42,17,3,49,4,27,30,4,0,0,2,0,42,0,49,4,1,57,60,3,102,53,0,0,29,4,0,0,10,1,0,4,30,0,49,9,0,4,35,0,52,1,3,3,30,0,1,0,0,0,0,0,0,0,0,0,0,0,0,0,0,0,0,0,0,0,0,0,0,0,0,0,0,0,0,0,0,0,0,0,0,0],"split_type":[0,0,0,0,0,0,0,0,0,0,0,0,0,0,0,0,0,0,0,0,0,0,0,0,0,0,0,0,0,0,0,0,0,0,0,0,0,0,0,0,0,0,0,0,0,0,0,0,0,0,0,0,0,0,0,0,0,0,0,0,0,0,0,0,0,0,0,0,0,0,0,0,0,0,0,0,0,0,0,0,0,0,0,0,0,0,0],"sum_hessian":[5.8488755E3,7.821788E2,5.066697E3,3.6309503E2,4.1908374E2,4.848308E3,2.1838861E2,3.1937198E2,4.372307E1,3.795158E2,3.9567955E1,4.5760063E3,2.7230157E2,2.171889E2,1.199715E0,3.147839E2,4.588052E0,2.8240213E1,1.5482855E1,3.8610203E1,3.4090558E2,3.0397667E1,9.170287E0,1.2548333E3,3.3211733E3,2.4825824E2,2.4043358E1,2.1586195E2,1.3269476E0,3.1101535E2,3.768567E0,1.1384345E0,3.4496171E0,2.353358E1,4.706633E0,2.4253373E0,1.3057517E1,3.0615923E1,7.994282E0,2.3883037E2,1.02075226E2,1.4493283E0,2.894834E1,6.41467E0,2.7556176E0,6.555994E2,5.992338E2,3.134719E3,1.8645425E2,2.4678009E2,1.4781499E0,1.9295351E1,4.7480054E0,3.09047E2,1.9683592E0,1.0098873E0,2.7586799E0,2.2532618E1,1.0009644E0,3.228276E0,1.478357E0,1.0692583E1,2.364934E0,2.9288837E1,1.3270848E0,1.1201206E2,1.268183E2,8.9815926E1,1.2259305E1,1.9873606E1,9.074733E0,4.2037077E0,2.210962E0,5.9237756E2,6.3221863E1,4.9348224E2,1.0575158E2,3.1144307E3,2.0288322E1,1.5104251E2,3.5411743E1,1.18846756E2,1.2793333E2,1.4506217E1,4.789135E0,2.0859933E0,2.662012E0],"tree_param":{"num_deleted":"0","num_feature":"103","num_nodes":"87","size_leaf_vector":"0"}},{"base_weights":[-2.9942552E-3,-7.3056495E-1,5.033757E-2,-8.553149E-1,-2.6396033E-1,1.729451E-2,1.003765E0,-9.073626E-1,-1.2188048E-1,9.364737E-2,-6.277612E-1,-1.6667964E-1,1.4050645E-1,1.0368122E0,7.1363264E-1,-9.336565E-1,5.1017445E-1,-3.3904335E-1,6.78473E-1,2.3887196E-1,-9.0649384E-1,-7.0906556E-1,7.3015857E-1,-5.1427776E-1,-6.265644E-2,-7.715532E-2,2.4395902E-1,1.042588E0,2.918501E-1,8.521112E-1,1.2947153E-1,-9.59711E-1,3.5114256E-1,8.651209E-1,-5.4586E-1,-1.2527368E0,-1.2020405E-1,1.4161334E0,-1.10902935E-1,-1.0074807E0,3.7531394E-1,-7.760226E-1,9.0120625E-1,-6.5182275E-1,-2.452042E-1,-5.6474984E-1,-1.0056177E-2,-1.2972082E-1,4.7352865E-1,2.0705892E-1,9.4804597E-1,1.0485078E0,3.249257E-1,9.515734E-1,2.3716927E-1,-8.311068E-1,5.89311E-1,-9.701585E-1,7.9821455E-1,-7.7390325E-1,7.319046E-1,-5.619271E-1,3.799101E-1,1.9680047E-1,1.1289978E0,-9.758186E-1,-7.659751E-2,-4.9525782E-1,-9.3024987E-1,-3.3435935E-1,8.5647994E-1,-7.606437E-1,1.5287566E-1,-5.795047E-1,3.1891428E-2,-8.466553E-1,-6.190743E-2,5.423416E-1,-5.970626E-1,2.647098E-1,-2.4798869E-1,8.156652E-1,1.2611606E0,1.7159921E-1,1.0089349E0,-4.527404E-1,6.679622E-1,7.330131E-1,1.02508105E-1],"categories":[],"categories_nodes":[],"categories_segments":[],"categories_sizes":[],"default_left":[1,1,1,1,1,1,1,1,1,1,1,1,1,1,1,1,1,1,1,1,0,1,0,1,1,1,1,1,0,1,1,1,1,0,0,0,1,0,0,0,1,1,0,1,1,1,1,1,1,1,1,0,0,1,1,0,1,0,0,0,0,0,0,0,0,0,0,0,0,0,0,0,0,0,0,0,0,0,0,0,0,0,0,0,0,0,0,0,0],"id":7,"left_children":[1,3,5,7,9,11,13,15,17,19,21,23,25,27,29,31,33,35,37,39,-1,41,-1,43,45,47,49,51,-1,53,55,57,59,-1,-1,-1,61,-1,-1,-1,63,65,-1,67,69,71,73,75,77,79,81,-1,-1,83,85,-1,87,-1,-1,-1,-1,-1,-1,-1,-1,-1,-1,-1,-1,-1,-1,-1,-1,-1,-1,-1,-1,-1,-1,-1,-1,-1,-1,-1,-1,-1,-1,-1,-1],"loss_changes":[2.1595096E2,2.1898651E1,1.6334204E2,1.1320816E1,1.0678434E1,1.1364935E2,9.252777E-1,1.0892548E1,3.879618E0,6.321855E0,4.999443E0,7.268303E1,6.763104E1,3.5705566E-1,1.5857944E0,9.533371E0,2.622281E0,3.28524E0,2.9605975E0,6.7545547E0,0E0,4.8835545E0,0E0,1.697815E1,4.0902752E1,2.8085245E1,5.2688293E1,3.0566406E-1,0E0,8.000345E-1,2.7853966E0,5.7246246E0,3.2191591E0,0E0,0E0,0E0,3.5203261E0,0E0,0E0,0E0,4.422916E0,5.2069073E0,0E0,1.2870743E1,1.5829075E1,2.0762486E1,3.3534203E1,4.295172E1,6.5543785E0,5.0839584E1,3.1613922E0,0E0,0E0,4.5786E-1,1.3922127E0,0E0,2.1165454E-1,0E0,0E0,0E0,0E0,0E0,0E0,0E0,0E0,0E0,0E0,0E0,0E0,0E0,0E0,0E0,0E0,0E0,0E0,0E0,0E0,0E0,0E0,0E0,0E0,0E0,0E0,0E0,0E0,0E0,0E0,0E0,0E0],"parents":[2147483647,0,0,1,1,2,2,3,3,4,4,5,5,6,6,7,7,8,8,9,9,10,10,11,11,12,12,13,13,14,14,15,15,16,16,17,17,18,18,19,19,21,21,23,23,24,24,25,25,26,26,27,27,29,29,30,30,31,31,32,32,36,36,40,40,41,41,43,43,44,44,45,45,46,46,47,47,48,48,49,49,50,50,53,53,54,54,56,56],"right_children":[2,4,6,8,10,12,14,16,18,20,22,24,26,28,30,32,34,36,38,40,-1,42,-1,44,46,48,50,52,-1,54,56,58,60,-1,-1,-1,62,-1,-1,-1,64,66,-1,68,70,72,74,76,78,80,82,-1,-1,84,86,-1,88,-1,-1,-1,-1,-1,-1,-1,-1,-1,-1,-1,-1,-1,-1,-1,-1,-1,-1,-1,-1,-1,-1,-1,-1,-1,-1,-1,-1,-1,-1,-1,-1],"split_conditions":[2.55E1,4.35E1,7.0735E3,5E-1,5E-1,9.5E0,6.05E1,4.2435E3,5E-1,5E-1,8.6845E3,5E-1,3.65E1,5E-1,5E-1,1.889E3,5E-1,5E-1,5E-1,2.15E1,-2.7194816E-1,5E-1,2.1904758E-1,4.15E1,5.5E0,5E-1,1.8815E3,5E-1,8.755503E-2,5E-1,6.35E1,5E-1,3.85E1,2.5953627E-1,-1.6375801E-1,-3.7582105E-1,2.45E1,4.2484003E-1,-3.327088E-2,-3.0224425E-1,5E-1,2.45E1,2.703619E-1,5E-1,3.265E2,4.95E1,3.45E1,3.95E1,5E-1,5E-1,2.3845E3,3.1455237E-1,9.747771E-2,7E0,1.05855E4,-2.4933204E-1,5E-1,-2.9104757E-1,2.3946437E-1,-2.3217098E-1,2.195714E-1,-1.6857813E-1,1.1397304E-1,5.9040144E-2,3.3869934E-1,-2.927456E-1,-2.2979254E-2,-1.4857735E-1,-2.7907497E-1,-1.0030781E-1,2.56944E-1,-2.2819312E-1,4.58627E-2,-1.7385143E-1,9.567428E-3,-2.539966E-1,-1.857223E-2,1.6270249E-1,-1.7911878E-1,7.9412945E-2,-7.439661E-2,2.4469957E-1,3.783482E-1,5.1479764E-2,3.0268046E-1,-1.3582213E-1,2.0038867E-1,2.1990393E-1,3.0752433E-2],"split_indices":[0,4,2,54,32,1,0,2,44,46,2,30,0,40,9,3,52,7,21,0,0,14,0,4,1,54,3,33,0,27,0,74,4,0,0,0,0,0,0,0,60,0,0,32,3,4,4,4,57,9,3,0,0,1,2,0,44,0,0,0,0,0,0,0,0,0,0,0,0,0,0,0,0,0,0,0,0,0,0,0,0,0,0,0,0,0,0,0,0],"split_type":[0,0,0,0,0,0,0,0,0,0,0,0,0,0,0,0,0,0,0,0,0,0,0,0,0,0,0,0,0,0,0,0,0,0,0,0,0,0,0,0,0,0,0,0,0,0,0,0,0,0,0,0,0,0,0,0,0,0,0,0,0,0,0,0,0,0,0,0,0,0,0,0,0,0,0,0,0,0,0,0,0,0,0,0,0,0,0,0,0],"sum_hessian":[5.5634146E3,3.7908676E2,5.1843276E3,2.984587E2,8.062806E1,5.0116562E3,1.7267151E2,2.784608E2,1.9997917E1,4.1034595E1,3.959346E1,2.0100272E3,3.001629E3,1.5270428E2,1.9967236E1,2.7372482E2,4.73597E0,1.618324E1,3.8146758E0,3.649634E1,4.5382557E0,3.780759E1,1.7858704E0,4.6206674E2,1.5479604E3,9.671089E2,2.0345199E3,1.5113301E2,1.5712662E0,1.5770145E1,4.19709E0,2.6853226E2,5.1925583E0,3.6798944E0,1.0560753E0,2.2141802E0,1.3969061E1,1.5614926E0,2.2531831E0,2.9712248E0,3.3525116E1,3.6795662E1,1.0119282E0,3.0482428E2,1.5724245E2,1.4586606E2,1.4020944E3,8.835355E2,8.357337E1,1.9344333E3,1.0008658E2,1.4943932E2,1.6936893E0,1.3103358E1,2.6667879E0,1.0973675E0,3.0997224E0,2.6739127E2,1.1410087E0,1.0519191E0,4.140639E0,7.3519206E0,6.617141E0,2.8124758E1,5.400359E0,2.8312744E1,8.482918E0,1.9688875E2,1.0793553E2,1.4611446E2,1.1127993E1,1.1453965E2,3.1326418E1,9.5317825E1,1.3067766E3,7.535757E1,8.081779E2,7.898968E1,4.583694E0,1.7172854E3,2.1714796E2,7.287921E1,2.7207367E1,1.1710824E0,1.1932276E1,1.0055174E0,1.6612705E0,2.00275E0,1.0969725E0],"tree_param":{"num_deleted":"0","num_feature":"103","num_nodes":"89","size_leaf_vector":"0"}},{"base_weights":[-3.150451E-3,-7.631534E-1,3.250397E-2,-1.0094278E0,-5.630129E-1,7.0077856E-3,9.7077835E-1,-1.0365933E0,5.4112566E-1,-6.831375E-1,-8.4590405E-2,-5.535603E-2,3.125711E-1,1.0130593E0,6.378255E-1,-1.0641379E0,-1.290592E-1,-7.3793036E-1,9.247904E-1,9.6926534E-1,-2.600945E-1,-2.692555E-1,2.8543292E-2,2.3860118E-1,7.030686E-1,1.0204687E0,2.5082356E-1,7.2362596E-1,-2.5311503E-1,-7.41816E-1,9.047513E-1,-7.7358735E-1,1.0401884E0,1.0636233E-1,1.3279045E0,7.386081E-2,1.6011658E0,-4.4078687E-1,7.035846E-1,-3.7974706E-1,4.2503648E-2,5.7189204E-2,-5.953031E-1,4.422359E-2,3.664621E-1,-6.4336944E-1,7.51015E-1,1.0280958E0,2.797065E-1,8.4514064E-1,2.1578391E-1,-8.193119E-1,4.2897224E-1,-1.8200532E-1,-1.0696398E0,6.165435E-2,1.0579456E0,-1.8375729E-1,-5.711644E-1,-8.576743E-2,4.985699E-1,8.214286E-2,-6.1459666E-1,-6.5397E-1,7.3422424E-2,-2.037401E-1,3.477061E-1,1.3834478E-1,5.329587E-1,-9.8940194E-1,3.438962E-2,-3.8390103E-1,8.1890243E-1,1.4720416E-1,8.98887E-1,-2.4362631E-1,4.611552E-1],"categories":[],"categories_nodes":[],"categories_segments":[],"categories_sizes":[],"default_left":[1,1,1,1,1,1,1,1,0,1,1,1,1,1,1,0,1,1,1,1,1,1,1,1,1,1,0,1,0,0,0,1,0,0,0,0,0,1,1,1,1,1,1,1,1,1,1,0,0,1,1,0,0,0,0,0,0,0,0,0,0,0,0,0,0,0,0,0,0,0,0,0,0,0,0,0,0],"id":8,"left_children":[1,3,5,7,9,11,13,15,-1,17,19,21,23,25,27,-1,29,31,33,35,37,39,41,43,45,47,-1,49,-1,-1,-1,51,-1,-1,-1,-1,-1,53,55,57,59,61,63,65,67,69,71,-1,-1,73,75,-1,-1,-1,-1,-1,-1,-1,-1,-1,-1,-1,-1,-1,-1,-1,-1,-1,-1,-1,-1,-1,-1,-1,-1,-1,-1],"loss_changes":[1.4474518E2,1.1229889E1,1.2205418E2,5.028076E0,7.6612015E0,9.469549E1,1.2539597E0,2.476677E0,0E0,1.0128441E1,5.448811E0,7.407268E1,2.4162018E1,4.1085052E-1,1.5521421E0,0E0,3.3433776E0,7.4136505E0,1.1708398E0,2.2709758E0,4.6414785E0,4.007187E1,5.3025322E1,1.7621368E1,9.109802E0,3.7122345E-1,0E0,8.416834E-1,0E0,0E0,0E0,6.0020256E0,0E0,0E0,0E0,0E0,0E0,3.3141508E0,9.158149E-1,3.210801E1,1.7895853E1,4.7591793E1,5.1587677E0,2.1346718E1,1.617981E1,1.2379563E0,1.0291489E1,0E0,0E0,3.571167E-1,6.2490255E-1,0E0,0E0,0E0,0E0,0E0,0E0,0E0,0E0,0E0,0E0,0E0,0E0,0E0,0E0,0E0,0E0,0E0,0E0,0E0,0E0,0E0,0E0,0E0,0E0,0E0,0E0],"parents":[2147483647,0,0,1,1,2,2,3,3,4,4,5,5,6,6,7,7,9,9,10,10,11,11,12,12,13,13,14,14,16,16,17,17,18,18,19,19,20,20,21,21,22,22,23,23,24,24,25,25,27,27,31,31,37,37,38,38,39,39,40,40,41,41,42,42,43,43,44,44,45,45,46,46,49,49,50,50],"right_children":[2,4,6,8,10,12,14,16,-1,18,20,22,24,26,28,-1,30,32,34,36,38,40,42,44,46,48,-1,50,-1,-1,-1,52,-1,-1,-1,-1,-1,54,56,58,60,62,64,66,68,70,72,-1,-1,74,76,-1,-1,-1,-1,-1,-1,-1,-1,-1,-1,-1,-1,-1,-1,-1,-1,-1,-1,-1,-1,-1,-1,-1,-1,-1,-1],"split_conditions":[2.45E1,2.15E1,7.0735E3,5E-1,4.95E1,5E-1,6.05E1,5E-1,1.623377E-1,5E-1,5E-1,5E-1,1.35E1,5E-1,5E-1,-3.192414E-1,5E-1,5E-1,2.35E1,5E-1,6.75E1,4.95E1,5E-1,3.95E1,2.95E1,5E-1,7.524707E-2,5E-1,-7.5934514E-2,-2.225448E-1,2.714254E-1,5E-1,3.1205654E-1,3.19087E-2,3.9837137E-1,2.2158243E-2,4.8034975E-1,5.55E1,5E-1,5E-1,5E-1,5E-1,5E-1,4.9E1,5E-1,5E-1,3.9E1,3.0842876E-1,8.3911955E-2,7E0,1.05855E4,-2.4579358E-1,1.2869167E-1,-5.46016E-2,-3.2089195E-1,1.8496307E-2,3.173837E-1,-5.512719E-2,-1.7134933E-1,-2.5730232E-2,1.4957097E-1,2.4642859E-2,-1.8437901E-1,-1.9619101E-1,2.2026729E-2,-6.1122034E-2,1.0431184E-1,4.1503437E-2,1.5988761E-1,-2.9682058E-1,1.0316886E-2,-1.15170315E-1,2.4567074E-1,4.416125E-2,2.696661E-1,-7.308789E-2,1.3834657E-1],"split_indices":[0,0,2,17,4,38,0,87,0,9,100,30,1,40,54,0,23,29,0,23,4,4,39,0,0,33,0,9,0,0,0,6,0,0,0,0,0,4,27,60,46,40,20,4,7,60,4,0,0,1,2,0,0,0,0,0,0,0,0,0,0,0,0,0,0,0,0,0,0,0,0,0,0,0,0,0,0],"split_type":[0,0,0,0,0,0,0,0,0,0,0,0,0,0,0,0,0,0,0,0,0,0,0,0,0,0,0,0,0,0,0,0,0,0,0,0,0,0,0,0,0,0,0,0,0,0,0,0,0,0,0,0,0,0,0,0,0,0,0,0,0,0,0,0,0,0,0,0,0,0,0,0,0,0,0,0,0],"sum_hessian":[5.3397344E3,2.3836597E2,5.101368E3,1.050534E2,1.3331258E2,4.9673945E3,1.3397395E2,1.0357033E2,1.4830725E0,1.0621556E2,2.709701E1,4.1260986E3,8.4129553E2,1.17065445E2,1.6908506E1,1.00351974E2,3.218353E0,1.032386E2,2.9769626E0,3.222714E0,2.3874296E1,1.16183E3,2.9642688E3,7.0866736E2,1.3262817E2,1.1560292E2,1.4625223E0,1.55945E1,1.314006E0,2.198004E0,1.0203489E0,1.0176287E2,1.4757318E0,1.3994865E0,1.577476E0,1.7954473E0,1.4272665E0,2.0561552E1,3.3127449E0,8.576495E2,3.0418048E2,2.834999E3,1.2926974E2,2.8172595E2,4.2694138E2,4.133451E0,1.2849472E2,1.14040825E2,1.5620964E0,1.204761E1,3.5468893E0,9.834232E1,3.4205446E0,1.5480528E1,5.0810237E0,1.5958415E0,1.7169033E0,4.2473193E2,4.3291757E2,2.3804187E2,6.613861E1,2.7343103E3,1.0068891E2,1.1886395E2,1.0405796E1,1.5522574E2,1.26500206E2,1.8090877E2,2.4603262E2,2.4319804E0,1.7014706E0,6.9896374E0,1.2150509E2,1.1287552E0,1.0918856E1,1.2373335E0,2.3095558E0],"tree_param":{"num_deleted":"0","num_feature":"103","num_nodes":"77","size_leaf_vector":"0"}},{"base_weights":[-2.551139E-3,2.7704323E-2,-6.870249E-1,5.7602855E-3,8.614846E-1,-2.9280415E-1,-8.174475E-1,3.5620745E-2,-5.3027594E-1,9.1295516E-1,-1.0862256E-2,-6.292202E-1,4.2947176E-1,-8.45985E-1,8.6523116E-1,-7.217608E-3,3.753404E-1,-6.114188E-1,1.7740302E-1,9.774967E-1,5.3801745E-1,-6.634592E-1,7.8813577E-1,4.9113822E-1,-6.888627E-1,-7.3744E-1,9.006079E-1,-8.7742233E-1,3.2694918E-1,-3.709512E-1,3.068538E-2,-1.847302E-1,4.4679293E-1,-6.2995505E-1,1.6038504E0,3.1890717E-1,-1.2465158E0,1.0019541E0,5.0482833E-1,6.4578915E-1,9.688348E-3,-1.102554E0,-1.2772022E-1,-7.982509E-1,6.097305E-2,-1.2424203E0,6.341678E-1,1.2409877E0,-8.6076283E-1,-9.0153027E-1,4.0288433E-1,-7.656904E-1,1.3526762E0,-5.750009E-1,3.585026E-1,-7.735381E-2,1.7995666E-1,-7.1059346E-1,7.2535485E-2,4.8379007E-1,-6.0555357E-1,-6.548481E-1,7.515913E-1,4.4299656E-1,-1.0086794E0,7.428809E-1,-3.3582667E-1,7.139293E-1,-2.6495266E-3,-6.444704E-1,6.938965E-1,-6.681398E-1,5.402623E-1,-1.2062782E0,-5.805416E-1,-7.5900346E-1,7.7835107E-1,1.7658267E0,6.503765E-3,-9.1803664E-1,4.7168684E-1,5.9424527E-2,5.836504E-1],"categories":[],"categories_nodes":[],"categories_segments":[],"categories_sizes":[],"default_left":[1,1,1,1,1,1,1,1,1,1,1,1,1,1,0,1,1,1,1,1,1,1,0,0,1,1,1,1,1,1,1,1,1,1,0,1,0,0,1,1,1,0,1,1,1,0,0,1,0,1,1,0,0,0,0,0,0,0,0,0,0,0,0,0,0,0,0,0,0,0,0,0,0,0,0,0,0,0,0,0,0,0,0],"id":9,"left_children":[1,3,5,7,9,11,13,15,17,19,21,23,25,27,-1,29,31,33,35,37,39,41,-1,-1,43,45,47,49,51,53,55,57,59,61,-1,63,-1,-1,65,67,69,-1,71,73,75,-1,-1,77,-1,79,81,-1,-1,-1,-1,-1,-1,-1,-1,-1,-1,-1,-1,-1,-1,-1,-1,-1,-1,-1,-1,-1,-1,-1,-1,-1,-1,-1,-1,-1,-1,-1,-1],"loss_changes":[1.0695648E2,9.049263E1,1.10015335E1,7.7174576E1,5.7046967E0,1.3854997E1,8.593811E0,6.646525E1,1.4717819E1,2.3725815E0,4.7228036E0,2.914134E0,1.0757954E1,6.2418823E0,0E0,5.5936737E1,2.0548645E1,1.039196E1,5.8268456E0,6.613388E-1,1.121964E0,1.0298476E0,0E0,0E0,3.084816E0,4.8263073E0,9.179559E0,5.2261734E0,6.576756E0,5.719796E1,5.9274895E1,7.9753876E0,1.7962921E1,8.308975E0,0E0,4.615798E0,0E0,0E0,1.6468378E0,7.2838926E-1,2.4041653E0,0E0,1.5784379E0,2.1755486E0,3.9093032E0,0E0,0E0,7.600025E0,0E0,3.9452286E0,1.8901247E-1,0E0,0E0,0E0,0E0,0E0,0E0,0E0,0E0,0E0,0E0,0E0,0E0,0E0,0E0,0E0,0E0,0E0,0E0,0E0,0E0,0E0,0E0,0E0,0E0,0E0,0E0,0E0,0E0,0E0,0E0,0E0,0E0],"parents":[2147483647,0,0,1,1,2,2,3,3,4,4,5,5,6,6,7,7,8,8,9,9,10,10,11,11,12,12,13,13,15,15,16,16,17,17,18,18,19,19,20,20,21,21,24,24,25,25,26,26,27,27,28,28,29,29,30,30,31,31,32,32,33,33,35,35,38,38,39,39,40,40,42,42,43,43,44,44,47,47,49,49,50,50],"right_children":[2,4,6,8,10,12,14,16,18,20,22,24,26,28,-1,30,32,34,36,38,40,42,-1,-1,44,46,48,50,52,54,56,58,60,62,-1,64,-1,-1,66,68,70,-1,72,74,76,-1,-1,78,-1,80,82,-1,-1,-1,-1,-1,-1,-1,-1,-1,-1,-1,-1,-1,-1,-1,-1,-1,-1,-1,-1,-1,-1,-1,-1,-1,-1,-1,-1,-1,-1,-1,-1],"split_conditions":[5E-1,5.0955E3,5E-1,5E-1,5E-1,4.25E1,2.218E3,1.35E1,5.55E1,6.05E1,7.6695E3,2.15E1,3.35E1,5E-1,2.5956935E-1,3.65E1,3.25E1,5E-1,5E-1,5E-1,5E-1,5E-1,2.3644073E-1,1.4734147E-1,5E-1,5E-1,5E-1,4.7185E3,5E-1,5E-1,4.35E1,5E-1,4.57E2,1.805E3,4.8115513E-1,5.65E1,-3.7395474E-1,3.0058622E-1,5.25E1,5E-1,4.25E1,-3.307662E-1,7.1395E3,3.15E1,5E-1,-3.727261E-1,1.9025035E-1,5.1E1,-2.5822887E-1,5E-1,4.25E1,-2.2970712E-1,4.0580288E-1,-1.7250027E-1,1.07550785E-1,-2.3206145E-2,5.3987E-2,-2.1317805E-1,2.1760646E-2,1.4513703E-1,-1.8166608E-1,-1.9645444E-1,2.2547741E-1,1.3289897E-1,-3.0260384E-1,2.2286427E-1,-1.00748E-1,2.141788E-1,-7.9485803E-4,-1.9334112E-1,2.0816895E-1,-2.0044196E-1,1.620787E-1,-3.6188346E-1,-1.7416249E-1,-2.2770105E-1,2.3350532E-1,5.29748E-1,1.9511295E-3,-2.75411E-1,1.4150606E-1,1.7827358E-2,1.7509513E-1],"split_indices":[52,2,32,42,53,4,3,1,4,0,2,0,0,45,0,4,0,29,54,28,23,28,0,0,46,37,23,2,27,54,0,7,2,3,0,0,0,0,4,39,4,0,2,0,30,0,0,4,0,91,4,0,0,0,0,0,0,0,0,0,0,0,0,0,0,0,0,0,0,0,0,0,0,0,0,0,0,0,0,0,0,0,0],"split_type":[0,0,0,0,0,0,0,0,0,0,0,0,0,0,0,0,0,0,0,0,0,0,0,0,0,0,0,0,0,0,0,0,0,0,0,0,0,0,0,0,0,0,0,0,0,0,0,0,0,0,0,0,0,0,0,0,0,0,0,0,0,0,0,0,0,0,0,0,0,0,0,0,0,0,0,0,0,0,0,0,0,0,0],"sum_hessian":[5.162798E3,4.9451685E3,2.1762935E2,4.8193364E3,1.258319E2,5.490779E1,1.6272156E2,4.5659204E3,2.5341585E2,1.1877721E2,7.054693E0,3.754787E1,1.7359917E1,1.6049684E2,2.224721E0,4.055504E3,5.1041675E2,2.2747003E2,2.5945816E1,9.9962616E1,1.8814594E1,3.9764705E0,3.0782225E0,1.5321623E0,3.601571E1,4.8304935E0,1.2529424E1,1.5655281E2,3.9440336E0,3.8189417E2,3.6736096E3,5.757081E1,4.5284595E2,2.2629216E2,1.1778668E0,2.4306368E1,1.6394475E0,9.398001E1,5.9826E0,1.5442267E1,3.372327E0,1.6038992E0,2.3725712E0,3.1374184E1,4.6415257E0,3.5994737E0,1.2310196E0,1.074787E1,1.7815527E0,1.5394981E2,2.603001E0,2.0324802E0,1.9115534E0,2.9858334E2,8.3310814E1,2.1314187E3,1.542191E3,1.8333717E1,3.923709E1,4.3798798E2,1.4857985E1,2.2280362E2,3.4885325E0,2.2838015E1,1.4683529E0,4.752981E0,1.2296189E0,1.3882454E1,1.5598134E0,1.753713E0,1.6186141E0,1.3113837E0,1.0611876E0,9.336008E0,2.2038176E1,2.1388059E0,2.5027199E0,7.2395635E0,3.5083072E0,1.5244882E2,1.500993E0,1.355761E0,1.2472402E0],"tree_param":{"num_deleted":"0","num_feature":"103","num_nodes":"83","size_leaf_vector":"0"}},{"base_weights":[-2.0968802E-3,4.6717312E-2,-3.0694243E-1,2.2989495E-2,6.312818E-1,-7.356629E-1,-1.1202753E-1,3.505662E-2,-1.652619E0,9.605006E-1,-9.081034E-2,-8.447721E-1,-3.058677E-1,-7.7114505E-1,-6.956791E-2,1.7308803E-2,8.2080585E-1,1.0424755E0,-1.3049623E0,-2.3501189E0,5.8419245E-1,-8.608421E-1,8.1840295E-1,-4.7376588E-1,4.45917E-1,2.063288E-1,-9.5773625E-1,-4.2285837E-2,-1.1028337E0,2.4935326E-2,-2.083916E0,3.596765E-1,9.0382916E-1,-1.3758549E-1,1.0556095E0,-6.87521E-1,-2.4641457E0,-1.5622634E-1,8.531063E-1,-8.8048023E-1,5.908653E-1,-5.93583E-1,7.238362E-1,-2.0843264E-1,1.6675341E0,-7.387852E-1,1.2276288E0,-6.785565E-2,9.563288E-1,5.5523824E-2,-4.0242088E-1,-5.9525865E-1,7.7423584E-1,1.01341E0,3.800411E-1,1.0619051E0,3.5751474E-1,-1.7992738E0,7.271302E-1,6.580058E-1,1.4038543E0,-9.0983313E-1,8.22475E-2,-1.1520507E0,-3.7725168E-1,-6.353749E-2,1.4179838E0,6.7344207E-1,-1.0340099E0,2.1669147E0,3.5813856E-1,-1.5164196E-1,2.2056784E-1,9.9195324E-2,1.4396578E0],"categories":[],"categories_nodes":[],"categories_segments":[],"categories_sizes":[],"default_left":[1,1,1,1,1,1,1,1,0,1,1,1,1,1,1,1,1,1,0,1,1,1,0,1,1,1,0,1,0,1,0,1,1,0,1,0,0,1,1,1,0,1,1,1,1,0,0,1,1,0,0,0,0,0,0,0,0,0,0,0,0,0,0,0,0,0,0,0,0,0,0,0,0,0,0],"id":10,"left_children":[1,3,5,7,9,11,13,15,-1,17,19,21,23,25,27,29,31,33,-1,35,37,39,-1,41,43,45,-1,47,-1,49,-1,51,53,-1,55,-1,-1,57,59,61,-1,63,65,67,69,-1,-1,71,73,-1,-1,-1,-1,-1,-1,-1,-1,-1,-1,-1,-1,-1,-1,-1,-1,-1,-1,-1,-1,-1,-1,-1,-1,-1,-1],"loss_changes":[7.486954E1,6.013988E1,5.794834E1,8.434904E1,4.029432E1,9.911514E0,1.33398285E1,5.7718323E1,0E0,2.2950142E1,8.3538086E1,5.312065E0,5.951336E0,5.4621677E0,1.2658861E1,6.494528E1,3.1749458E0,1.892746E0,0E0,6.932297E-1,8.552489E0,5.401787E0,0E0,5.833376E0,7.395729E0,6.1670947E0,0E0,1.1304124E1,0E0,5.277958E1,0E0,6.640335E0,4.02367E0,0E0,1.10954285E-1,0E0,0E0,1.888611E1,2.425888E0,4.8603363E0,0E0,3.767641E0,2.2082803E0,5.5237904E0,1.3076239E0,0E0,0E0,1.0427346E1,4.4371605E0,0E0,0E0,0E0,0E0,0E0,0E0,0E0,0E0,0E0,0E0,0E0,0E0,0E0,0E0,0E0,0E0,0E0,0E0,0E0,0E0,0E0,0E0,0E0,0E0,0E0,0E0],"parents":[2147483647,0,0,1,1,2,2,3,3,4,4,5,5,6,6,7,7,9,9,10,10,11,11,12,12,13,13,14,14,15,15,16,16,17,17,19,19,20,20,21,21,23,23,24,24,25,25,27,27,29,29,31,31,32,32,34,34,37,37,38,38,39,39,41,41,42,42,43,43,44,44,47,47,48,48],"right_children":[2,4,6,8,10,12,14,16,-1,18,20,22,24,26,28,30,32,34,-1,36,38,40,-1,42,44,46,-1,48,-1,50,-1,52,54,-1,56,-1,-1,58,60,62,-1,64,66,68,70,-1,-1,72,74,-1,-1,-1,-1,-1,-1,-1,-1,-1,-1,-1,-1,-1,-1,-1,-1,-1,-1,-1,-1,-1,-1,-1,-1,-1,-1],"split_conditions":[5E-1,1.748E3,5E-1,1.5685E3,1.9785E3,5E-1,2.35E1,5.0955E3,-4.957857E-1,5E-1,2.1615E3,5E-1,4.25E1,8.5E0,5E-1,4.9735E3,5E-1,4.5E0,-3.914887E-1,8E0,4.15E1,2.2315E3,2.4552089E-1,1.452E3,5E-1,4.9E1,-2.8732088E-1,5E-1,-3.3085012E-1,5E-1,-6.251748E-1,7.0735E3,6.05E1,-4.127565E-2,6.5E1,-2.062563E-1,-7.3924375E-1,2.396E3,5E-1,5E-1,1.772596E-1,5E-1,5E-1,5E-1,4.85E1,-2.2163557E-1,3.6828867E-1,1.35E1,3.35E1,1.6657148E-2,-1.20726265E-1,-1.785776E-1,2.3227076E-1,3.04023E-1,1.1401233E-1,3.1857157E-1,1.0725442E-1,-5.3978217E-1,2.1813907E-1,1.9740175E-1,4.211563E-1,-2.7294996E-1,2.4674252E-2,-3.4561524E-1,-1.1317551E-1,-1.9061249E-2,4.2539516E-1,2.0203263E-1,-3.10203E-1,6.500744E-1,1.07441574E-1,-4.549259E-2,6.617036E-2,2.9758599E-2,4.3189737E-1],"split_indices":[32,3,50,3,3,21,0,2,0,50,3,74,0,1,40,2,30,1,0,1,0,3,0,3,46,4,0,45,0,41,0,2,0,0,0,0,0,3,53,45,0,7,44,7,0,0,0,1,0,0,0,0,0,0,0,0,0,0,0,0,0,0,0,0,0,0,0,0,0,0,0,0,0,0,0],"split_type":[0,0,0,0,0,0,0,0,0,0,0,0,0,0,0,0,0,0,0,0,0,0,0,0,0,0,0,0,0,0,0,0,0,0,0,0,0,0,0,0,0,0,0,0,0,0,0,0,0,0,0,0,0,0,0,0,0,0,0,0,0,0,0,0,0,0,0,0,0,0,0,0,0,0,0],"sum_hessian":[5.029324E3,4.335877E3,6.934469E2,4.167745E3,1.6813191E2,2.1586717E2,4.7757974E2,4.1389175E3,2.8827906E1,1.1525451E2,5.28774E1,1.713916E2,4.4475567E1,2.7864607E1,4.4971512E2,4.0484954E3,9.042185E1,1.11750694E2,3.5038147E0,1.1592934E1,4.1284466E1,1.7022922E2,1.1623881E0,3.6658363E1,7.817202E0,4.4495397E0,2.3415068E1,4.3916058E2,1.0554554E1,4.0348389E3,1.3656559E1,1.4609546E1,7.581231E1,1.1257846E0,1.1062491E2,1.1952182E0,1.0397716E1,1.1110958E1,3.0173508E1,1.683454E2,1.8838271E0,3.3782833E1,2.8755317E0,5.630597E0,2.1866055E0,2.4546356E0,1.994904E0,4.2910526E2,1.0055313E1,3.766143E3,2.6869583E2,4.2905064E0,1.0319039E1,6.192278E1,1.3889529E1,1.0911967E2,1.5052385E0,3.5224059E0,7.5885525E0,2.3901304E1,6.2722044E0,1.6341785E2,4.9275503E0,8.224797E0,2.5558035E1,1.7729436E0,1.1025882E0,2.8115742E0,2.8190227E0,1.1088228E0,1.0777826E0,3.3287897E2,9.622628E1,4.0602026E0,5.99511E0],"tree_param":{"num_deleted":"0","num_feature":"103","num_nodes":"75","size_leaf_vector":"0"}},{"base_weights":[-1.7906744E-3,-3.8406685E-1,3.0246325E-2,-5.668501E-1,2.9331434E-1,1.092579E-2,6.2086344E-1,-6.148755E-1,4.259139E-1,3.5167837E-1,-9.540632E-1,2.9648706E-2,-2.0738678E0,1.3698783E0,3.883259E-1,-6.695473E-1,3.0108657E-1,-1.0955093E0,9.7517604E-1,-7.9792297E-1,4.1567147E-1,1.585523E-2,1.4381716E0,-1.1667508E0,-2.233724E0,1.5599034E0,7.787511E-1,-5.7859075E-1,7.708741E-1,-7.619839E-1,-1.873876E-1,9.5723236E-1,-7.676972E-2,1.4275689E0,-4.4855353E-1,-9.6511346E-1,-2.4434833E-1,4.9188718E-1,-6.6302377E-1,3.0579356E-2,-1.7353182E0,1.4988528E0,1.4039885E-1,-1.2320042E0,-2.348715E0,1.6200484E0,5.908932E-1,-2.2391845E-1,9.665993E-1,2.7614105E-1,-1.6051872E0,8.215085E-1,1.0958142E-3,-9.2797494E-1,-5.3437006E-1,-9.1849595E-1,1.7689642E-1,1.959833E-1,1.0917879E0,-6.5255266E-1,7.4433255E-1,7.4321955E-1,2.349622E0,1.0237491E-1,-8.229064E-1,-5.164346E-2,6.483332E-1,-1.1142647E0,5.5045545E-1,-1.13659136E-1,1.0811161E-1,-1.2324034E0,-2.0961158E0,1.6348418E0,1.1180576E0,1.136244E0,1.5265004E-1,-1.1529213E0,9.57208E-1,9.086806E-1,3.5099167E-1,-6.086735E-1,7.140948E-1],"categories":[],"categories_nodes":[],"categories_segments":[],"categories_sizes":[],"default_left":[1,1,1,1,1,1,1,1,1,1,0,1,1,1,1,1,1,0,1,1,1,1,1,0,1,1,1,1,1,1,1,1,1,1,1,0,0,1,1,1,1,1,0,0,0,0,0,0,1,1,0,1,1,0,0,0,0,0,0,0,0,0,0,0,0,0,0,0,0,0,0,0,0,0,0,0,0,0,0,0,0,0,0],"id":11,"left_children":[1,3,5,7,9,11,13,15,17,19,-1,21,23,25,27,29,31,-1,33,35,37,39,41,-1,43,45,47,49,51,53,55,57,59,61,63,-1,-1,65,67,69,71,73,-1,-1,-1,-1,-1,-1,75,77,-1,79,81,-1,-1,-1,-1,-1,-1,-1,-1,-1,-1,-1,-1,-1,-1,-1,-1,-1,-1,-1,-1,-1,-1,-1,-1,-1,-1,-1,-1,-1,-1],"loss_changes":[6.0250675E1,4.7266735E1,5.1791035E1,1.4561287E1,6.268598E0,1.7167204E2,2.4508911E1,1.4548088E1,1.312682E1,6.11283E0,0E0,8.465323E1,3.070343E0,2.5667152E0,4.154281E1,1.1920349E1,4.2452455E0,0E0,7.8098755E0,1.7939043E-1,6.500185E0,1.11367386E2,3.117218E0,0E0,8.1404114E-1,4.6934128E-1,2.1350117E0,2.8581251E1,3.118744E0,8.072769E0,1.2112202E1,4.2346668E-1,5.971483E0,3.7348328E0,7.9475504E-1,0E0,0E0,6.0466843E0,3.5602825E0,4.7899456E1,3.9514008E0,2.5722504E-1,0E0,0E0,0E0,0E0,0E0,0E0,1.0371265E0,1.8964993E1,0E0,2.7612076E0,3.0176356E0,0E0,0E0,0E0,0E0,0E0,0E0,0E0,0E0,0E0,0E0,0E0,0E0,0E0,0E0,0E0,0E0,0E0,0E0,0E0,0E0,0E0,0E0,0E0,0E0,0E0,0E0,0E0,0E0,0E0,0E0],"parents":[2147483647,0,0,1,1,2,2,3,3,4,4,5,5,6,6,7,7,8,8,9,9,11,11,12,12,13,13,14,14,15,15,16,16,18,18,19,19,20,20,21,21,22,22,24,24,25,25,26,26,27,27,28,28,29,29,30,30,31,31,32,32,33,33,34,34,37,37,38,38,39,39,40,40,41,41,48,48,49,49,51,51,52,52],"right_children":[2,4,6,8,10,12,14,16,18,20,-1,22,24,26,28,30,32,-1,34,36,38,40,42,-1,44,46,48,50,52,54,56,58,60,62,64,-1,-1,66,68,70,72,74,-1,-1,-1,-1,-1,-1,76,78,-1,80,82,-1,-1,-1,-1,-1,-1,-1,-1,-1,-1,-1,-1,-1,-1,-1,-1,-1,-1,-1,-1,-1,-1,-1,-1,-1,-1,-1,-1,-1,-1],"split_conditions":[3.45E1,5E-1,4.2435E3,5E-1,5E-1,3.12E3,4.401E3,1.45E1,3.9E1,2.75E1,-2.8621897E-1,3.048E3,5E-1,4.75E1,5.0955E3,5E-1,4.6E1,-3.286528E-1,5.6E1,2.75E1,1.207E3,5.7E1,5E-1,-3.5002524E-1,8.5E0,1.35E1,9.5E0,5E-1,5E-1,5.05E1,3.65E1,3.05E1,1.55E1,5E-1,5E-1,-2.8953406E-1,-7.3304504E-2,1.55E1,6.1555E3,3.65E1,5E-1,1.05E1,4.2119656E-2,-3.6960125E-1,-7.046145E-1,4.8601454E-1,1.7726797E-1,-6.717554E-2,5E-1,4.6685E3,-4.8155618E-1,6.05E1,7.6695E3,-2.783925E-1,-1.6031103E-1,-2.755488E-1,5.306893E-2,5.8794994E-2,3.275364E-1,-1.9576581E-1,2.2329977E-1,2.2296588E-1,7.048866E-1,3.0712474E-2,-2.4687192E-1,-1.5493039E-2,1.9449997E-1,-3.3427942E-1,1.6513664E-1,-3.4097742E-2,3.2433484E-2,-3.6972103E-1,-6.288348E-1,4.9045256E-1,3.354173E-1,3.4087324E-1,4.5795016E-2,-3.458764E-1,2.871624E-1,2.726042E-1,1.05297506E-1,-1.8260206E-1,2.1422845E-1],"split_indices":[4,54,2,47,57,2,2,1,0,0,0,2,30,4,2,46,0,0,0,4,2,2,24,0,1,1,1,30,53,0,0,0,1,27,7,0,0,4,2,0,30,1,0,0,0,0,0,0,46,2,0,0,2,0,0,0,0,0,0,0,0,0,0,0,0,0,0,0,0,0,0,0,0,0,0,0,0,0,0,0,0,0,0],"split_type":[0,0,0,0,0,0,0,0,0,0,0,0,0,0,0,0,0,0,0,0,0,0,0,0,0,0,0,0,0,0,0,0,0,0,0,0,0,0,0,0,0,0,0,0,0,0,0,0,0,0,0,0,0,0,0,0,0,0,0,0,0,0,0,0,0,0,0,0,0,0,0,0,0,0,0,0,0,0,0,0,0,0,0],"sum_hessian":[4.917686E3,3.7941318E2,4.538273E3,2.9891708E2,8.049606E1,4.395504E3,1.4276921E2,2.8548718E2,1.3429914E1,7.758402E1,2.9120433E0,4.3573574E3,3.8146362E1,3.266444E1,1.10104774E2,2.6966074E2,1.582644E1,3.2985678E0,1.0131347E1,3.4862647E0,7.4097755E1,4.3161016E3,4.125575E1,6.9585137E0,3.1187849E1,2.3478218E1,9.186222E0,3.106738E1,7.90374E1,2.2579282E2,4.3867924E1,5.223146E0,1.0603293E1,7.68631E0,2.445037E0,2.1066074E0,1.3796575E0,6.971594E1,4.381816E0,4.2810884E3,3.501349E1,3.9264862E1,1.9908868E0,4.4177155E0,2.6770134E1,2.147353E1,2.004688E0,1.4191685E0,7.7670536E0,1.7351633E1,1.3715748E1,7.409629E1,4.941107E0,1.2879213E2,9.7000694E1,1.4082781E1,2.9785141E1,1.1535351E0,4.0696106E0,6.3533764E0,4.249917E0,5.448484E0,2.2378256E0,1.2831606E0,1.1618764E0,1.5731359E1,5.3984585E1,3.253674E0,1.1281418E0,1.4965287E3,2.7845596E3,1.6470743E1,1.8542747E1,2.6505892E1,1.275897E1,6.0997653E0,1.6672885E0,5.3768125E0,1.197482E1,6.1728653E1,1.2367634E1,2.7422261E0,2.198881E0],"tree_param":{"num_deleted":"0","num_feature":"103","num_nodes":"83","size_leaf_vector":"0"}},{"base_weights":[-1.668267E-3,-8.6335376E-2,1.1904514E-1,-1.2917762E-1,2.8969434E-1,1.4552507E-1,-3.899918E-1,-1.8131767E-1,1.851336E-1,3.5069636E-1,-3.8208738E-1,1.8696155E-1,-8.79348E-2,-4.400845E-1,7.6154757E-1,-3.117998E-1,-3.3737842E-2,1.5785915E-1,1.9086745E0,4.057516E-1,-2.7831972E-1,7.4153766E-3,-1.0989212E0,2.3971495E-1,-7.180425E-2,-1.095048E-1,1.6519338E0,-3.456013E-1,-1.1490182E0,8.937892E-1,1.588802E-1,-7.1001977E-1,-2.4636279E-1,5.6465156E-2,-3.5874024E-1,3.162192E-1,-1.3155192E-1,3.7893257E-1,2.3208697E0,4.222419E-1,-1.2062601E0,5.068954E-1,-5.4702425E-1,-1.1749679E0,1.913839E-1,1.6005309E-1,-1.3636125E0,2.503883E-1,-8.3774656E-1,-3.1036955E-1,1.5744041E-1,-3.0758667E-1,7.7697895E-2,-2.1207795E-1,-9.4018024E-1,-4.3644148E-1,-1.465822E0,-7.861191E-1,-2.86983E-1,-2.8140596E-1,4.9216095E-1,-3.8942492E-1,1.2506707E-1,-4.5738572E-1,5.6578356E-1,4.916038E-1,-1.6183294E-1,-2.0349315E-1,9.69102E-1,3.9831713E-1,1.6224573E0,-3.9410445E-1,7.7616334E-1,-3.261439E-1,-1.6470498E0,-4.557032E-2,9.384211E-1,-8.193272E-2,-1.6038096E0,2.6741436E-1,-3.8187787E-1,-1.2541351E0,1.680542E-1,-6.362672E-1,-1.4792123E-1,2.7591744E-1,-4.5603886E-1,-3.5088754E-1,6.3018596E-1,1.4365838E-1,-8.904429E-1,-3.805688E-1,3.6188006E-1,-1.0629327E0,2.1868074E-1,-9.2385346E-1,4.1464537E-1,-7.0911837E-1,-2.1746619E0],"categories":[],"categories_nodes":[],"categories_segments":[],"categories_sizes":[],"default_left":[1,1,1,1,1,1,1,1,1,1,1,1,1,1,1,1,1,1,1,1,1,1,1,1,1,1,0,1,1,0,0,1,1,1,1,1,1,0,0,1,0,1,1,0,1,0,1,1,1,1,1,1,1,1,1,1,1,0,0,0,0,0,0,0,0,0,0,0,0,0,0,0,0,0,0,0,0,0,0,0,0,0,0,0,0,0,0,0,0,0,0,0,0,0,0,0,0,0,0],"id":12,"left_children":[1,3,5,7,9,11,13,15,17,19,21,23,25,27,29,31,33,35,37,39,41,43,45,47,49,51,-1,53,55,-1,-1,57,59,61,63,65,67,-1,-1,69,-1,71,73,-1,75,-1,77,79,81,83,85,87,89,91,93,95,97,-1,-1,-1,-1,-1,-1,-1,-1,-1,-1,-1,-1,-1,-1,-1,-1,-1,-1,-1,-1,-1,-1,-1,-1,-1,-1,-1,-1,-1,-1,-1,-1,-1,-1,-1,-1,-1,-1,-1,-1,-1,-1],"loss_changes":[4.9401123E1,4.580474E1,2.6915731E1,4.1840767E1,1.2054239E1,1.8346397E1,6.034377E0,4.213405E1,1.6784851E1,9.365746E0,6.90276E0,2.19884E1,1.0925239E1,5.9874134E0,2.1543837E-1,3.0090736E1,3.0161043E1,1.649023E1,2.6339855E0,7.05101E0,4.9394913E0,3.92121E0,3.1175652E0,1.5587593E1,1.4997194E1,1.0544896E1,0E0,6.591421E0,1.7936277E0,0E0,0E0,5.034317E0,2.5994648E1,2.4692104E1,2.0641623E1,1.9553074E1,1.0303614E1,0E0,0E0,6.3698807E0,0E0,1.7986126E0,3.5797668E0,0E0,2.7979736E0,0E0,2.1140947E0,1.4364082E1,5.8002796E0,7.01478E0,1.03051815E1,5.8272057E0,9.493959E0,7.0176463E0,2.4224281E0,2.349951E0,2.232854E0,0E0,0E0,0E0,0E0,0E0,0E0,0E0,0E0,0E0,0E0,0E0,0E0,0E0,0E0,0E0,0E0,0E0,0E0,0E0,0E0,0E0,0E0,0E0,0E0,0E0,0E0,0E0,0E0,0E0,0E0,0E0,0E0,0E0,0E0,0E0,0E0,0E0,0E0,0E0,0E0,0E0,0E0],"parents":[2147483647,0,0,1,1,2,2,3,3,4,4,5,5,6,6,7,7,8,8,9,9,10,10,11,11,12,12,13,13,14,14,15,15,16,16,17,17,18,18,19,19,20,20,21,21,22,22,23,23,24,24,25,25,27,27,28,28,31,31,32,32,33,33,34,34,35,35,36,36,39,39,41,41,42,42,44,44,46,46,47,47,48,48,49,49,50,50,51,51,52,52,53,53,54,54,55,55,56,56],"right_children":[2,4,6,8,10,12,14,16,18,20,22,24,26,28,30,32,34,36,38,40,42,44,46,48,50,52,-1,54,56,-1,-1,58,60,62,64,66,68,-1,-1,70,-1,72,74,-1,76,-1,78,80,82,84,86,88,90,92,94,96,98,-1,-1,-1,-1,-1,-1,-1,-1,-1,-1,-1,-1,-1,-1,-1,-1,-1,-1,-1,-1,-1,-1,-1,-1,-1,-1,-1,-1,-1,-1,-1,-1,-1,-1,-1,-1,-1,-1,-1,-1,-1,-1],"split_conditions":[4.05E1,5E-1,5E-1,5E-1,5E-1,5E-1,1.76E3,4.35E1,5E-1,5E-1,5E-1,5E-1,5E-1,5E-1,2.305E3,3.95E1,5.95E1,5E-1,5E-1,5E-1,5E-1,5E-1,5E-1,9.05E1,3.85E1,1.25E1,4.9558017E-1,5.75E1,5E-1,2.6813677E-1,4.7664065E-2,4.05E1,5E-1,5E-1,5E-1,5E-1,1.4465E3,1.13679774E-1,6.962609E-1,5E-1,-3.6187804E-1,3.55E1,5.65E1,-3.5249037E-1,5E-1,4.801593E-2,3E1,5E-1,5E-1,4.85E1,5E-1,5E-1,6.75E1,4.95E1,7.0325E3,4.75E1,4.35E1,-2.3583575E-1,-8.609491E-2,-8.442179E-2,1.4764829E-1,-1.1682748E-1,3.752012E-2,-1.3721572E-1,1.6973507E-1,1.4748114E-1,-4.8549887E-2,-6.1047945E-2,2.9073063E-1,1.19495146E-1,4.867372E-1,-1.1823134E-1,2.3284902E-1,-9.784317E-2,-4.9411497E-1,-1.3671097E-2,2.8152633E-1,-2.4579817E-2,-4.811429E-1,8.022431E-2,-1.1456337E-1,-3.7624055E-1,5.041626E-2,-1.9088016E-1,-4.4376373E-2,8.2775235E-2,-1.3681166E-1,-1.05266266E-1,1.890558E-1,4.309752E-2,-2.6713288E-1,-1.1417065E-1,1.0856403E-1,-3.1887984E-1,6.5604225E-2,-2.7715605E-1,1.2439362E-1,-2.1273552E-1,-6.523986E-1],"split_indices":[4,54,39,44,57,60,3,0,91,46,23,37,45,21,3,4,0,21,7,39,7,100,7,4,0,1,0,0,9,0,0,0,45,59,8,60,3,0,0,29,0,0,0,0,38,0,0,40,38,4,9,47,4,0,2,0,0,0,0,0,0,0,0,0,0,0,0,0,0,0,0,0,0,0,0,0,0,0,0,0,0,0,0,0,0,0,0,0,0,0,0,0,0,0,0,0,0,0,0],"split_type":[0,0,0,0,0,0,0,0,0,0,0,0,0,0,0,0,0,0,0,0,0,0,0,0,0,0,0,0,0,0,0,0,0,0,0,0,0,0,0,0,0,0,0,0,0,0,0,0,0,0,0,0,0,0,0,0,0,0,0,0,0,0,0,0,0,0,0,0,0,0,0,0,0,0,0,0,0,0,0,0,0,0,0,0,0,0,0,0,0,0,0,0,0,0,0,0,0,0,0],"sum_hessian":[4.8315483E3,2.8399338E3,1.9916147E3,2.5500544E3,2.8987924E2,1.8938134E3,9.780141E1,2.1875862E3,3.624683E2,2.6618585E2,2.3693392E1,1.6085187E3,2.8529465E2,9.431641E1,3.4849954E0,1.1604586E3,1.0271276E3,3.578963E2,4.5719995E0,2.4508913E2,2.1096724E1,1.5993002E1,7.70039E0,1.3361895E3,2.7232925E2,2.8272662E2,2.568039E0,8.45372E1,9.77921E0,2.4617622E0,1.023233E0,1.6238803E2,9.9807056E2,8.0463184E2,2.2249579E2,2.3126175E2,1.2663454E2,1.377843E0,3.1941566E0,2.4333794E2,1.7511935E0,5.152759E0,1.5943965E1,1.4280434E0,1.4564959E1,1.406388E0,6.2940016E0,1.323843E3,1.2346384E1,1.3327826E2,1.3905098E2,1.3705922E2,1.456674E2,7.01422E1,1.4394999E1,3.7414114E0,6.037799E0,1.3690259E2,2.5485437E1,9.534482E2,4.462242E1,1.0666532E2,6.979665E2,2.0150116E2,2.0994637E1,1.691696E2,6.209216E1,1.1963035E2,7.0041933E0,2.3988794E2,3.4499893E0,1.0789294E0,4.0738297E0,1.4357524E1,1.5864409E0,1.1770461E1,2.7944977E0,1.2050451E0,5.088957E0,1.2896904E3,3.4152573E1,8.556996E0,3.7893887E0,4.3364777E1,8.991349E1,1.1700488E2,2.2046103E1,1.3160815E2,5.4510665E0,1.3717326E2,8.49415E0,5.448465E1,1.5657551E1,1.3091101E1,1.3038982E0,2.3246188E0,1.4167926E0,3.887835E0,2.1499639E0],"tree_param":{"num_deleted":"0","num_feature":"103","num_nodes":"99","size_leaf_vector":"0"}},{"base_weights":[-1.6023008E-3,-1.9725572E-2,4.5605156E-1,-6.463471E-2,1.9757779E-1,1.8383415E-1,6.1403334E-1,-1.1419849E-1,2.0144778E-1,1.7188193E-1,7.938382E-1,-6.394249E-1,2.8769425E-1,8.118873E-1,3.9259273E-1,-1.80582E-1,1.14213176E-1,-9.0374696E-1,2.3774007E-1,1.8486117E-1,-1.543079E0,8.844039E-1,3.024798E-1,-1.198469E-1,-1.1397774E0,-1.6520534E-1,4.8638955E-1,5.851868E-1,2.1108418E0,-2.677947E-1,6.218268E-1,-2.091072E-1,2.7948546E-1,2.1029805E-1,-3.5585117E-1,-1.0051361E0,-5.6112623E-1,3.013435E-1,-1.268269E-1,2.3418796E-1,-1.8392393E-1,6.5825164E-1,1.1141008E0,5.847838E-1,-2.686677E-1,-8.861906E-1,6.816632E-1,-6.861086E-1,3.802829E-1,6.1010295E-1,-1.1736442E-1,-5.848615E-1,6.901963E-1,2.2655249E0,6.3909537E-1,-8.720917E-1,2.8621113E-1,-3.3346826E-1,6.694147E-1,-4.3736184E-1,-1.3953806E-1,-3.3330852E-1,7.609669E-1,2.4107781E-1,-6.765084E-1,-2.070235E-1,-1.2677561E0,-7.350442E-1,-8.321423E-2,-9.246121E-1,3.25175E-1,7.884231E-1,-2.3076218E-1,2.5414476E-1,-7.461587E-1,-4.8343557E-1,1.3368617E-1,8.297042E-1,-8.5079026E-1,7.545392E-1,1.5101582E-1,-9.5936453E-1,4.854888E-1,-7.792915E-2,1.1187729E0,6.543594E-1,-1.237584E-3,3.1142217E-1,-1.4477695E0,1.9945677E-1,-8.506178E-1,5.644011E-1,9.814148E-1,-1.182511E0,2.6396233E-1,7.482244E-1,-8.3906907E-1,7.072749E-1,-2.706823E-1],"categories":[],"categories_nodes":[],"categories_segments":[],"categories_sizes":[],"default_left":[1,1,1,1,1,1,1,1,1,1,1,1,1,1,1,1,1,1,1,1,0,1,1,1,0,1,1,1,1,1,1,1,1,1,1,0,1,1,1,1,1,1,0,1,0,0,0,1,1,1,1,1,1,0,0,1,1,0,1,0,0,0,0,0,0,0,0,0,0,0,0,0,0,0,0,0,0,0,0,0,0,0,0,0,0,0,0,0,0,0,0,0,0,0,0,0,0,0,0],"id":13,"left_children":[1,3,5,7,9,11,13,15,17,19,21,23,25,27,29,31,33,35,37,39,-1,41,43,45,-1,47,49,51,53,55,57,59,61,63,65,-1,67,69,71,73,75,77,-1,79,-1,-1,-1,81,83,85,87,89,91,-1,-1,93,95,-1,97,-1,-1,-1,-1,-1,-1,-1,-1,-1,-1,-1,-1,-1,-1,-1,-1,-1,-1,-1,-1,-1,-1,-1,-1,-1,-1,-1,-1,-1,-1,-1,-1,-1,-1,-1,-1,-1,-1,-1,-1],"loss_changes":[3.9320408E1,4.4513897E1,7.653179E0,4.98713E1,1.1833366E1,5.976226E0,4.6689377E0,4.8343258E1,2.4035358E1,1.6984903E1,1.1565151E0,1.9169657E0,5.5556173E0,1.6193447E1,8.591703E0,3.246914E1,3.251588E1,9.913826E-2,1.3389446E1,1.3604523E1,0E0,6.432457E-1,1.2051673E0,3.6707244E0,0E0,5.744928E0,3.249301E0,6.765053E0,4.6691513E-1,5.2847E0,2.115055E0,3.687548E1,4.2921528E1,1.6458317E1,1.6331928E1,0E0,4.8931623E-1,1.4632843E1,8.385244E0,1.3062992E1,8.484495E0,4.7931185E0,0E0,2.2954202E-1,0E0,0E0,0E0,3.740549E0,3.4950223E0,9.604778E-1,5.056574E0,1.1712688E0,1.2034016E0,0E0,0E0,2.9360585E0,5.0985518E0,0E0,1.6141644E0,0E0,0E0,0E0,0E0,0E0,0E0,0E0,0E0,0E0,0E0,0E0,0E0,0E0,0E0,0E0,0E0,0E0,0E0,0E0,0E0,0E0,0E0,0E0,0E0,0E0,0E0,0E0,0E0,0E0,0E0,0E0,0E0,0E0,0E0,0E0,0E0,0E0,0E0,0E0,0E0],"parents":[2147483647,0,0,1,1,2,2,3,3,4,4,5,5,6,6,7,7,8,8,9,9,10,10,11,11,12,12,13,13,14,14,15,15,16,16,17,17,18,18,19,19,21,21,22,22,23,23,25,25,26,26,27,27,28,28,29,29,30,30,31,31,32,32,33,33,34,34,36,36,37,37,38,38,39,39,40,40,41,41,43,43,47,47,48,48,49,49,50,50,51,51,52,52,55,55,56,56,58,58],"right_children":[2,4,6,8,10,12,14,16,18,20,22,24,26,28,30,32,34,36,38,40,-1,42,44,46,-1,48,50,52,54,56,58,60,62,64,66,-1,68,70,72,74,76,78,-1,80,-1,-1,-1,82,84,86,88,90,92,-1,-1,94,96,-1,98,-1,-1,-1,-1,-1,-1,-1,-1,-1,-1,-1,-1,-1,-1,-1,-1,-1,-1,-1,-1,-1,-1,-1,-1,-1,-1,-1,-1,-1,-1,-1,-1,-1,-1,-1,-1,-1,-1,-1,-1],"split_conditions":[5E-1,5E-1,3.65E1,5E-1,1.748E3,3.9E1,1.05E1,5E-1,2.45E1,1.5715E3,5E-1,3.35E1,5E-1,5E-1,5E-1,5E-1,5E-1,4.45E1,5E-1,5E-1,-4.6292374E-1,2.1015E3,2.1765E3,5E-1,-3.4193325E-1,1.25E1,3.45E1,5E-1,5E-1,4.35E1,5E-1,5E-1,5E-1,6.45E1,5.1E1,-3.0154085E-1,1.25E1,1.9E1,3.15E1,5E-1,4.75E1,5E-1,3.3423024E-1,4.25E1,-8.0600314E-2,-2.658572E-1,2.0449898E-1,5E-1,3.25E1,5E-1,4.75E1,5E-1,5.55E1,6.7965746E-1,1.9172862E-1,1.35E1,5E-1,-1.0004048E-1,1.5515E3,-1.3120855E-1,-4.1861422E-2,-9.999256E-2,2.2829008E-1,7.2323345E-2,-2.0295253E-1,-6.2107053E-2,-3.8032684E-1,-2.2051327E-1,-2.4964271E-2,-2.7738366E-1,9.75525E-2,2.3652695E-1,-6.922866E-2,7.624343E-2,-2.2384763E-1,-1.4503068E-1,4.0105853E-2,2.4891128E-1,-2.552371E-1,2.2636177E-1,4.5304745E-2,-2.8780937E-1,1.4564665E-1,-2.3378745E-2,3.3563188E-1,1.9630782E-1,-3.7127524E-4,9.342665E-2,-4.3433088E-1,5.9837032E-2,-2.5518537E-1,1.6932033E-1,2.9442444E-1,-3.5475332E-1,7.9188704E-2,2.2446732E-1,-2.5172073E-1,2.1218248E-1,-8.12047E-2],"split_indices":[47,38,0,46,3,4,1,44,0,3,27,4,30,50,30,45,6,4,9,9,0,3,3,54,0,1,0,30,5,0,59,30,6,0,4,0,1,4,0,52,0,50,0,4,0,0,0,53,0,19,4,7,0,0,0,1,60,0,2,0,0,0,0,0,0,0,0,0,0,0,0,0,0,0,0,0,0,0,0,0,0,0,0,0,0,0,0,0,0,0,0,0,0,0,0,0,0,0,0],"split_type":[0,0,0,0,0,0,0,0,0,0,0,0,0,0,0,0,0,0,0,0,0,0,0,0,0,0,0,0,0,0,0,0,0,0,0,0,0,0,0,0,0,0,0,0,0,0,0,0,0,0,0,0,0,0,0,0,0,0,0,0,0,0,0,0,0,0,0,0,0,0,0,0,0,0,0,0,0,0,0,0,0,0,0,0,0,0,0,0,0,0,0,0,0,0,0,0,0,0,0],"sum_hessian":[4.7386357E3,4.5590522E3,1.7958336E2,3.7788057E3,7.8024664E2,6.674284E1,1.1284051E2,3.1859268E3,5.928789E2,7.4924615E2,3.1000525E1,6.8991704E0,5.9843674E1,5.8185886E1,5.465462E1,2.4686653E3,7.172613E2,1.8089972E1,5.7478894E2,7.445038E2,4.7423787E0,2.5500444E1,5.5000796E0,3.9926414E0,2.906529E0,1.829994E1,4.1543736E1,5.0774883E1,7.4110007E0,1.4039837E1,4.0614784E1,2.3250525E3,1.4361295E2,5.95989E2,1.2127226E2,1.246703E1,5.622943E0,4.8955344E2,8.523551E1,6.569928E2,8.7510994E1,1.4797267E1,1.0703177E1,3.66479E0,1.8352898E0,1.987087E0,2.0055544E0,9.229051E0,9.0708885E0,3.4470062E1,7.073672E0,3.8053133E0,4.696957E1,6.2181206E0,1.19288E0,6.440514E0,7.599323E0,1.6421559E0,3.8972626E1,5.4187787E2,1.7831746E3,6.3325134E1,8.02878E1,5.7670074E2,1.9288296E1,1.0531184E2,1.5960422E1,3.7281804E0,1.8947623E0,8.614277E0,4.8093915E2,8.020613E0,7.7214905E1,6.4461127E2,1.2381518E1,4.4770016E1,4.274098E1,1.3691823E1,1.1054438E0,2.1024828E0,1.5623072E0,7.6305084E0,1.5985428E0,6.1496687E0,2.92122E0,3.2077526E1,2.392538E0,5.928764E0,1.144908E0,1.0261989E0,2.7791145E0,3.4852634E1,1.2116937E1,5.026235E0,1.4142787E0,5.6249356E0,1.9743874E0,3.7701927E1,1.2707002E0],"tree_param":{"num_deleted":"0","num_feature":"103","num_nodes":"99","size_leaf_vector":"0"}},{"base_weights":[-1.5778173E-3,-1.6760942E-2,5.389726E-1,-2.9144946E-3,-1.6252906E0,1.1240485E0,3.5126466E-1,-1.3230107E-2,1.2363774E0,1.2062571E0,2.4831225E-1,-2.5366217E-1,8.2720226E-1,-8.1363786E-4,-1.4724178E0,1.2955076E0,5.9069395E-2,1.2913846E0,2.5536382E-1,-5.6818265E-1,8.2859933E-1,-1.1398154E0,-7.692529E-2,9.2593944E-1,3.978644E-1,-1.9742947E-2,4.3691915E-1,-1.1429638E0,-1.6322755E0,1.3323238E0,4.8574805E-1,7.36631E-1,-3.0372694E-1,8.903273E-1,-5.434229E-1,3.0522448E-1,9.704923E-1,8.6529565E-1,6.7196436E-2,-3.6483843E-2,4.7070163E-1,-1.0678014E0,4.6861842E-1,1.128792E0,2.3083432E-1,-1.3491861E0,1.6054854E-1,-2.71807E-1,6.8382996E-1,-1.6402636E0,6.1140287E-1],"categories":[],"categories_nodes":[],"categories_segments":[],"categories_sizes":[],"default_left":[1,1,1,1,0,1,1,1,1,1,1,1,1,1,1,0,0,1,1,0,0,0,1,1,1,1,1,0,0,0,0,0,0,1,1,1,0,0,1,0,0,0,0,0,0,0,0,0,0,0,0],"id":14,"left_children":[1,3,5,7,-1,9,11,13,15,17,19,21,23,25,27,-1,-1,29,31,-1,-1,-1,33,35,37,39,41,-1,-1,-1,-1,-1,-1,43,45,47,-1,-1,49,-1,-1,-1,-1,-1,-1,-1,-1,-1,-1,-1,-1],"loss_changes":[3.814414E1,1.0067864E2,1.3550213E1,5.732677E1,0E0,1.888195E0,2.8306454E1,8.056833E1,2.500454E0,1.8979721E0,2.3030055E0,6.7621956E0,1.9568748E0,3.65533E1,1.1038971E-1,0E0,0E0,1.7781067E-1,1.1675903E0,0E0,0E0,0E0,1.7421131E1,9.162445E-1,1.798093E0,3.47357E1,9.222622E0,0E0,0E0,0E0,0E0,0E0,0E0,1.7197676E0,1.4933133E1,1.1460222E0,0E0,0E0,8.546108E0,0E0,0E0,0E0,0E0,0E0,0E0,0E0,0E0,0E0,0E0,0E0,0E0],"parents":[2147483647,0,0,1,1,2,2,3,3,5,5,6,6,7,7,8,8,9,9,10,10,11,11,12,12,13,13,14,14,17,17,18,18,22,22,23,23,24,24,25,25,26,26,33,33,34,34,35,35,38,38],"right_children":[2,4,6,8,-1,10,12,14,16,18,20,22,24,26,28,-1,-1,30,32,-1,-1,-1,34,36,38,40,42,-1,-1,-1,-1,-1,-1,44,46,48,-1,-1,50,-1,-1,-1,-1,-1,-1,-1,-1,-1,-1,-1,-1],"split_conditions":[4.2435E3,3.12E3,4.401E3,3.048E3,-4.875872E-1,5E-1,7.0735E3,5.7E1,5E-1,5.35E1,4.05E1,4.6685E3,6.05E1,5E-1,5E-1,3.886523E-1,1.7720819E-2,5E-1,4.35E1,-1.704548E-1,2.4857982E-1,-3.4194463E-1,4.9735E3,3.55E1,1.0543E4,1.748E3,2.65E1,-3.4288913E-1,-4.8968264E-1,3.9969715E-1,1.4572442E-1,2.209893E-1,-9.111808E-2,4.826E3,5.119E3,9.5E0,2.911477E-1,2.5958872E-1,1.11415E4,-1.0945153E-2,1.412105E-1,-3.2034042E-1,1.4058553E-1,3.3863762E-1,6.92503E-2,-4.0475583E-1,4.8164565E-2,-8.15421E-2,2.05149E-1,-4.9207908E-1,1.8342087E-1],"split_indices":[2,2,2,2,0,46,2,2,24,4,0,2,0,5,30,0,0,24,0,0,0,0,2,4,2,3,0,0,0,0,0,0,0,2,2,1,0,0,2,0,0,0,0,0,0,0,0,0,0,0,0],"split_type":[0,0,0,0,0,0,0,0,0,0,0,0,0,0,0,0,0,0,0,0,0,0,0,0,0,0,0,0,0,0,0,0,0,0,0,0,0,0,0,0,0,0,0,0,0,0,0,0,0,0,0],"sum_hessian":[4.645517E3,4.51954E3,1.2597706E2,4.4819604E3,3.757953E1,2.9387981E1,9.658908E1,4.445943E3,3.6017796E1,2.6520939E1,2.8670418E0,4.2736767E1,5.385231E1,4.409423E3,3.651995E1,3.419972E1,1.8180764E0,2.401312E1,2.5078177E0,1.1997662E0,1.6672757E0,6.200156E0,3.6536613E1,4.2842846E1,1.1009466E1,4.227561E3,1.8186168E2,1.4593595E1,2.1926355E1,2.222974E1,1.7833805E0,1.1770539E0,1.3307637E0,1.1592264E1,2.4944347E1,3.394949E0,3.9447895E1,3.8915594E0,7.1179075E0,4.0889153E3,1.3864592E2,3.077791E0,1.7878389E2,7.9911537E0,3.6011112E0,1.1203884E1,1.3740463E1,1.4567716E0,1.9381773E0,1.2335548E0,5.8843527E0],"tree_param":{"num_deleted":"0","num_feature":"103","num_nodes":"51","size_leaf_vector":"0"}},{"base_weights":[-7.6684315E-4,-8.791437E-1,6.7414935E-3,-9.4898283E-1,6.7099756E-1,1.6515221E-2,-6.880533E-1,-1.0218472E0,1.7384592E-1,9.007476E-3,7.863259E-1,2.8382942E-1,-8.831095E-1,-7.4234353E-3,3.2475024E-1,9.115499E-1,3.315475E-1,-1.4277875E-1,1.1561236E0,-1.0120382E0,-1.4584558E-2,3.0348415E-3,-7.021548E-1,3.7481305E-1,-2.5972974E-1,9.517269E-1,2.7524215E-1,-1.8441503E-1,6.3376766E-1,-6.4578974E-1,1.3382485E0,-1.2158798E0,-4.1241992E-1,-9.244977E-1,6.838354E-1,-5.6755024E-1,1.3981684E-2,-7.711851E-1,1.4117851E0,-1.0414717E0,3.8966194E-1,-6.8773276E-1,7.972484E-1,9.814717E-1,3.9966023E-1,-2.404739E-1,5.929733E-1,6.643781E-1,-8.3195907E-1,-7.6785907E-3,8.50569E-1,-1.176391E0,2.4833925E-1,-1.3141744E0,-3.0646217E-1,3.195566E-1,-8.7001455E-1,6.423967E-2,1.1205118E0],"categories":[],"categories_nodes":[],"categories_segments":[],"categories_sizes":[],"default_left":[1,1,1,1,0,1,1,0,0,1,1,1,1,1,1,1,1,1,0,1,1,1,1,1,1,1,1,1,1,1,0,1,1,0,1,0,0,0,0,0,0,0,0,0,0,0,0,0,0,0,0,0,0,0,0,0,0,0,0],"id":15,"left_children":[1,3,5,7,-1,9,11,-1,-1,13,15,17,19,21,23,25,27,29,-1,31,33,35,37,39,41,43,45,47,49,51,-1,53,55,-1,57,-1,-1,-1,-1,-1,-1,-1,-1,-1,-1,-1,-1,-1,-1,-1,-1,-1,-1,-1,-1,-1,-1,-1,-1],"loss_changes":[3.0305132E1,4.853033E0,3.0951447E1,3.2604675E0,0E0,2.5966137E1,1.22367115E1,0E0,0E0,2.3097048E1,2.169016E0,4.379529E0,5.9090614E0,3.07533E1,6.5411377E0,5.9327507E-1,1.8228683E0,7.1933117E0,0E0,5.126999E0,5.6225343E0,2.6057985E1,1.0248867E1,4.6803207E0,8.675532E0,1.1777878E-1,6.986809E-1,3.1996408E0,9.9733305E-1,3.6208692E0,0E0,2.623394E0,4.698063E0,0E0,1.2855434E0,0E0,0E0,0E0,0E0,0E0,0E0,0E0,0E0,0E0,0E0,0E0,0E0,0E0,0E0,0E0,0E0,0E0,0E0,0E0,0E0,0E0,0E0,0E0,0E0],"parents":[2147483647,0,0,1,1,2,2,3,3,5,5,6,6,9,9,10,10,11,11,12,12,13,13,14,14,15,15,16,16,17,17,19,19,20,20,21,21,22,22,23,23,24,24,25,25,26,26,27,27,28,28,29,29,31,31,32,32,34,34],"right_children":[2,4,6,8,-1,10,12,-1,-1,14,16,18,20,22,24,26,28,30,-1,32,34,36,38,40,42,44,46,48,50,52,-1,54,56,-1,58,-1,-1,-1,-1,-1,-1,-1,-1,-1,-1,-1,-1,-1,-1,-1,-1,-1,-1,-1,-1,-1,-1,-1,-1],"split_conditions":[2.15E1,5E-1,5E-1,5E-1,2.0129928E-1,7.0735E3,5E-1,-3.065542E-1,5.2153777E-2,5E-1,6.05E1,1.25E1,5E-1,6.85E1,5E-1,5E-1,6.45E1,5E-1,3.468371E-1,5E-1,4E1,4.5E0,5E-1,1.75E1,6.4E1,5E-1,3.6E1,1.0543E4,1.05855E4,5E-1,4.0147457E-1,5E-1,3.15E1,-2.7734932E-1,5.15E1,-1.7026508E-1,4.1945055E-3,-2.3135553E-1,4.2353556E-1,-3.1244153E-1,1.1689859E-1,-2.0631984E-1,2.3917453E-1,2.9444152E-1,1.1989807E-1,-7.214217E-2,1.77892E-1,1.9931345E-1,-2.4958773E-1,-2.3035773E-3,2.551707E-1,-3.529173E-1,7.4501775E-2,-3.9425233E-1,-9.193865E-2,9.5866986E-2,-2.610044E-1,1.9271903E-2,3.3615354E-1],"split_indices":[0,17,87,44,0,2,7,0,0,8,0,1,15,0,28,53,0,48,0,23,0,1,31,4,4,28,0,2,2,46,0,17,0,0,0,0,0,0,0,0,0,0,0,0,0,0,0,0,0,0,0,0,0,0,0,0,0,0,0],"split_type":[0,0,0,0,0,0,0,0,0,0,0,0,0,0,0,0,0,0,0,0,0,0,0,0,0,0,0,0,0,0,0,0,0,0,0,0,0,0,0,0,0,0,0,0,0,0,0,0,0,0,0,0,0,0,0,0,0,0,0],"sum_hessian":[4.5931655E3,3.794555E1,4.55522E3,3.6680763E1,1.2647852E0,4.492993E3,6.222702E1,3.4529926E1,2.1508358E0,4.4505996E3,4.239373E1,1.0325299E1,5.1901722E1,4.2313794E3,2.1921991E2,3.2453278E1,9.9404545E0,7.495724E0,2.8295748E0,4.5049133E1,6.8525863E0,4.169607E3,6.177238E1,2.0225479E2,1.6965122E1,3.005959E1,2.393687E0,3.8157868E0,6.124667E0,6.01632E0,1.479404E0,3.2852947E1,1.2196188E1,2.8351746E0,4.017411E0,7.7532166E1,4.092075E3,6.0434105E1,1.3382739E0,1.3811673E0,2.0087363E2,1.2324068E1,4.6410537E0,2.7784758E1,2.2748313E0,1.00523E0,1.3884571E0,1.6400421E0,2.1757448E0,1.7908103E0,4.333857E0,3.5775926E0,2.4387279E0,2.9246737E1,3.60621E0,4.8075714E0,7.388616E0,2.1350791E0,1.8823323E0],"tree_param":{"num_deleted":"0","num_feature":"103","num_nodes":"59","size_leaf_vector":"0"}},{"base_weights":[-7.7813683E-4,1.5272106E-2,-3.1364182E-1,2.8242718E-2,-3.51913E-1,-3.314079E-1,1.4437537E0,4.1061517E-2,-3.679458E-1,-8.583481E-1,-2.3030578E-1,-3.9134645E-1,1.5602705E-1,6.148598E-2,-2.3108648E-1,-4.546828E-1,4.4144183E-1,-1.163043E0,4.1624814E-2,-2.9340968E-1,3.756904E-1,-4.1064864E-1,1.2609262E0,-1.3054541E-1,1.154397E0,-5.9672E-1,6.959893E-2,-7.485901E-1,-1.2388915E-1,-4.930392E-1,6.956679E-1,7.2671866E-1,-6.043984E-1,-2.9535797E-1,8.587493E-1,-5.3824216E-1,-1.01246156E-1,1.2519455E0,-2.0184739E-1,-7.309145E-1,-3.2127887E-1,-7.901732E-1,2.3456942E-1,2.0665401E-1,1.6036578E0,-7.3615855E-1,-1.2112386E-2,5.0565097E-2,3.124125E-1,-7.978391E-1,3.8323966E-1,-1.4175114E-1,1.7184523E0,-5.360958E-1,5.588499E-1,2.1718171E-1,8.6753047E-1,-4.495064E-1,8.9288074E-1,-1.032672E0,9.201919E-2,-9.3855184E-1,4.0036225E-1,-6.5884185E-1,8.001929E-1,-2.8069848E-1,4.272547E-1,3.4411106E-1,1.5577104E0,-1.3285363E0,3.9531505E-1,-8.285724E-1,4.790095E-1,-1.168747E-2,-4.293503E-1,3.2126874E-1,-1.098E0,-7.518343E-2,8.868783E-1],"categories":[],"categories_nodes":[],"categories_segments":[],"categories_sizes":[],"default_left":[1,1,1,1,1,1,0,1,1,1,1,1,1,1,1,1,1,0,1,1,1,1,0,1,1,1,1,1,1,1,1,1,1,1,0,1,1,1,1,1,1,1,1,0,0,0,0,0,0,0,0,0,0,0,0,0,0,0,0,0,0,0,0,0,0,0,0,0,0,0,0,0,0,0,0,0,0,0,0],"id":16,"left_children":[1,3,5,7,9,11,-1,13,15,17,19,21,23,25,27,29,31,-1,33,35,37,39,-1,41,43,45,47,49,51,53,55,57,59,61,-1,63,65,67,69,71,73,75,77,-1,-1,-1,-1,-1,-1,-1,-1,-1,-1,-1,-1,-1,-1,-1,-1,-1,-1,-1,-1,-1,-1,-1,-1,-1,-1,-1,-1,-1,-1,-1,-1,-1,-1,-1,-1],"loss_changes":[2.2867626E1,2.0640324E1,7.4166317E0,2.126862E1,8.909042E0,6.5122604E0,0E0,2.2551636E1,9.415627E0,7.799202E0,4.7222357E0,6.7979145E0,7.2730227E0,2.0185808E1,1.562121E1,5.5957394E0,4.3811216E0,0E0,2.4880254E0,5.110964E0,6.2308707E0,5.357807E0,0E0,5.0600686E0,2.0757904E0,3.743761E0,1.7210596E1,3.0041466E0,8.005022E0,5.543867E0,1.6158366E-1,2.5189223E0,1.1023868E0,3.279599E0,0E0,8.282831E0,6.070595E0,8.051696E-1,5.8951015E0,5.3412437E0,5.165946E0,2.8984103E0,2.855015E0,0E0,0E0,0E0,0E0,0E0,0E0,0E0,0E0,0E0,0E0,0E0,0E0,0E0,0E0,0E0,0E0,0E0,0E0,0E0,0E0,0E0,0E0,0E0,0E0,0E0,0E0,0E0,0E0,0E0,0E0,0E0,0E0,0E0,0E0,0E0,0E0],"parents":[2147483647,0,0,1,1,2,2,3,3,4,4,5,5,7,7,8,8,9,9,10,10,11,11,12,12,13,13,14,14,15,15,16,16,18,18,19,19,20,20,21,21,23,23,24,24,25,25,26,26,27,27,28,28,29,29,30,30,31,31,32,32,33,33,35,35,36,36,37,37,38,38,39,39,40,40,41,41,42,42],"right_children":[2,4,6,8,10,12,-1,14,16,18,20,22,24,26,28,30,32,-1,34,36,38,40,-1,42,44,46,48,50,52,54,56,58,60,62,-1,64,66,68,70,72,74,76,78,-1,-1,-1,-1,-1,-1,-1,-1,-1,-1,-1,-1,-1,-1,-1,-1,-1,-1,-1,-1,-1,-1,-1,-1,-1,-1,-1,-1,-1,-1,-1,-1,-1,-1,-1,-1],"split_conditions":[5E-1,5E-1,5E-1,5E-1,5E-1,5.55E1,4.3312612E-1,5E-1,5.75E1,5.8E1,5E-1,5E-1,5E-1,2.35E1,5E-1,5E-1,9.5E0,-3.4891292E-1,5.2E1,4.95E1,4.45E1,5E-1,3.782779E-1,5E-1,4.45E1,4.95E1,5E-1,5E-1,5E-1,1.486E3,4.15E1,4.5E0,5E-1,6.8E1,2.576248E-1,5E-1,5E-1,5E-1,3.55E1,6.35E1,3.15E1,3.05E1,1.05E1,6.1996207E-2,4.8109737E-1,-2.2084758E-1,-3.633716E-3,1.516953E-2,9.372375E-2,-2.3935173E-1,1.149719E-1,-4.2525344E-2,5.155357E-1,-1.6082874E-1,1.6765496E-1,6.5154515E-2,2.6025915E-1,-1.3485193E-1,2.6786423E-1,-3.0980164E-1,2.7605759E-2,-2.8156558E-1,1.2010868E-1,-1.9765256E-1,2.4005787E-1,-8.420955E-2,1.2817642E-1,1.0323332E-1,4.6731314E-1,-3.985609E-1,1.1859452E-1,-2.4857172E-1,1.4370286E-1,-3.5062411E-3,-1.2880509E-1,9.638063E-2,-3.2940003E-1,-2.2555029E-2,2.660635E-1],"split_indices":[42,39,85,40,49,4,0,41,0,4,20,102,53,0,30,9,1,0,0,4,4,59,0,7,0,4,54,56,101,3,0,1,21,4,0,8,7,7,0,0,0,0,1,0,0,0,0,0,0,0,0,0,0,0,0,0,0,0,0,0,0,0,0,0,0,0,0,0,0,0,0,0,0,0,0,0,0,0,0],"split_type":[0,0,0,0,0,0,0,0,0,0,0,0,0,0,0,0,0,0,0,0,0,0,0,0,0,0,0,0,0,0,0,0,0,0,0,0,0,0,0,0,0,0,0,0,0,0,0,0,0,0,0,0,0,0,0,0,0,0,0,0,0,0,0,0,0,0,0,0,0,0,0,0,0,0,0,0,0,0,0],"sum_hessian":[4.5519546E3,4.3307344E3,2.2122012E2,4.1838647E3,1.4686964E2,2.1980943E2,1.4107025E0,4.0536055E3,1.3025928E2,2.7265152E1,1.1960449E2,1.9591537E2,2.3894053E1,3.7713435E3,2.8226187E2,1.1804714E2,1.2212137E1,2.015064E1,7.1145115E0,1.0879157E2,1.0812919E1,1.9439587E2,1.5195068E0,1.9240496E1,4.6535573E0,4.5035645E1,3.7263079E3,4.7408806E1,2.3485307E2,1.14791046E2,3.2561002E0,9.834647E0,2.3774905E0,5.489271E0,1.6252401E0,4.7047787E1,6.1743786E1,3.8316746E0,6.981244E0,4.0845E1,1.5355087E2,6.4405756E0,1.279992E1,1.9660474E0,2.6875098E0,3.6153263E1,8.882383E0,3.456561E3,2.6974695E2,4.571472E1,1.6940837E0,2.3351216E2,1.3409039E0,1.1074818E2,4.042869E0,1.4586728E0,1.7974275E0,1.0062679E0,8.828379E0,1.1731858E0,1.2043047E0,2.6709447E0,2.8183265E0,4.362473E1,3.4230552E0,4.6442966E1,1.5300818E1,1.5008806E0,2.3307939E0,1.994118E0,4.987126E0,3.80861E1,2.7589004E0,4.0018448E1,1.1353242E2,1.3874333E0,5.053142E0,9.278643E0,3.5212772E0],"tree_param":{"num_deleted":"0","num_feature":"103","num_nodes":"79","size_leaf_vector":"0"}},{"base_weights":[-1.0074681E-3,-1.9023123E-1,2.2463087E-2,6.380147E-3,-2.826665E-1,9.993071E-3,3.5931233E-1,6.751894E-1,-7.749118E-2,-3.156502E-1,1.2179826E0,-8.7409513E-4,4.0701446E-1,3.856782E-1,-1.675166E0,6.0669214E-2,1.6529157E0,-5.7625735E-1,5.7786718E-2,-2.0492844E-1,-5.593509E-1,2.5820966E0,3.855581E-2,8.770422E-3,-8.7107617E-1,8.626665E-1,-7.824154E-2,4.358174E-1,-7.636221E-1,-2.5067523E-1,1.5823747E0,1.9748052E0,8.55031E-1,-7.090812E-1,4.5217028E-1,2.0769861E-1,-2.6827216E-1,-1.7873536E-1,-1.7707593E0,-8.1435704E-1,-2.8790978E-1,4.6060294E-1,-7.5595146E-1,7.5865135E-4,2.517026E0,-1.3992943E0,1.0113058E-1,-8.1636393E-1,9.2065746E-1,-1.4468018E0,5.557315E-1,4.5996642E-1,-8.4140795E-1,-1.1654456E0,3.4567255E-1,6.1709577E-1,-6.577627E-1,4.920841E-1,2.6392589E0,1.15779154E-1,1.1723835E0,-1.6158137E0,-5.4482204E-1,7.8104384E-2,6.651633E-1,3.5815784E-1,-4.2729247E-1,-4.405146E-1,1.3942546E0,-1.2937208E-1,-1.0590945E0,-8.6849034E-1,6.7261696E-1,6.4943895E-2,-6.3664407E-1,2.0778336E-2,7.8893864E-1,2.5744587E-2,-1.9113488E-1,8.706921E-1,-1.3915744E0,9.6681714E-1,3.966784E-1,-1.7331729E0,7.755496E-1,7.012529E-2,8.9722013E-1,5.1403886E-1,-1.7481515E-1,-1.819115E0,3.4045753E-1],"categories":[],"categories_nodes":[],"categories_segments":[],"categories_sizes":[],"default_left":[1,1,1,1,1,1,1,1,1,1,1,1,1,1,0,1,1,1,1,1,1,0,1,1,1,1,1,1,1,1,0,1,1,1,1,1,1,1,0,1,1,1,0,1,0,0,1,0,1,1,1,1,0,1,0,0,0,0,0,0,0,0,0,0,0,0,0,0,0,0,0,0,0,0,0,0,0,0,0,0,0,0,0,0,0,0,0,0,0,0,0],"id":17,"left_children":[1,3,5,7,9,11,13,15,17,19,21,23,25,27,-1,29,31,33,35,37,39,-1,41,43,45,47,49,51,53,55,-1,57,59,61,63,65,67,69,-1,71,73,75,-1,77,-1,-1,79,-1,81,83,85,87,-1,89,-1,-1,-1,-1,-1,-1,-1,-1,-1,-1,-1,-1,-1,-1,-1,-1,-1,-1,-1,-1,-1,-1,-1,-1,-1,-1,-1,-1,-1,-1,-1,-1,-1,-1,-1,-1,-1],"loss_changes":[1.999705E1,9.031649E0,1.6822895E1,9.020082E0,1.7113905E1,1.6670897E1,8.315163E0,1.0665046E1,9.67864E0,8.830616E0,1.192665E1,3.158005E1,2.2829346E1,8.512943E0,0E0,6.1010666E0,7.77092E-2,4.4993763E0,5.596862E0,9.097321E0,6.8942146E0,0E0,2.0328386E0,7.478681E1,2.1323048E1,5.9291573E0,4.4853306E1,4.6020527E0,3.2098567E0,4.2417717E0,0E0,2.776619E0,7.417822E-1,3.2127523E0,2.754768E-1,7.626297E0,1.0963404E1,9.721876E0,0E0,4.8145027E0,6.370271E0,5.47162E-1,0E0,1.7796883E1,0E0,0E0,1.896316E1,0E0,8.7104416E-1,1.17498665E1,5.810611E0,4.715666E0,0E0,5.395049E0,0E0,0E0,0E0,0E0,0E0,0E0,0E0,0E0,0E0,0E0,0E0,0E0,0E0,0E0,0E0,0E0,0E0,0E0,0E0,0E0,0E0,0E0,0E0,0E0,0E0,0E0,0E0,0E0,0E0,0E0,0E0,0E0,0E0,0E0,0E0,0E0,0E0],"parents":[2147483647,0,0,1,1,2,2,3,3,4,4,5,5,6,6,7,7,8,8,9,9,10,10,11,11,12,12,13,13,15,15,16,16,17,17,18,18,19,19,20,20,22,22,23,23,24,24,25,25,26,26,27,27,28,28,29,29,31,31,32,32,33,33,34,34,35,35,36,36,37,37,39,39,40,40,41,41,43,43,46,46,48,48,49,49,50,50,51,51,53,53],"right_children":[2,4,6,8,10,12,14,16,18,20,22,24,26,28,-1,30,32,34,36,38,40,-1,42,44,46,48,50,52,54,56,-1,58,60,62,64,66,68,70,-1,72,74,76,-1,78,-1,-1,80,-1,82,84,86,88,-1,90,-1,-1,-1,-1,-1,-1,-1,-1,-1,-1,-1,-1,-1,-1,-1,-1,-1,-1,-1,-1,-1,-1,-1,-1,-1,-1,-1,-1,-1,-1,-1,-1,-1,-1,-1,-1,-1],"split_conditions":[5E-1,5E-1,5E-1,2.95E1,5E-1,1.8815E3,6.55E1,5E-1,5E-1,5E-1,5E-1,1.5685E3,1.9785E3,5E-1,-5.025498E-1,5E-1,5E-1,5E-1,5E-1,5E-1,4.15E1,7.74629E-1,4.55E1,1.5515E3,1.748E3,5E-1,2.2185E3,5E-1,5E-1,9.5E0,4.7471243E-1,5E-1,5E-1,3.75E1,4.5E1,5E-1,6.35E1,5E-1,-5.312278E-1,1.7845E3,4.75E1,4.4E1,-2.2678545E-1,5E-1,7.551078E-1,-4.197883E-1,5E-1,-2.4490918E-1,5E-1,6.9E1,2.3845E3,5E-1,-2.524224E-1,5E-1,1.0370177E-1,1.8512873E-1,-1.9732882E-1,1.4762524E-1,7.917777E-1,3.4733746E-2,3.517151E-1,-4.8474413E-1,-1.6344662E-1,2.3431316E-2,1.9954899E-1,1.07447356E-1,-1.2818775E-1,-1.3215439E-1,4.182764E-1,-3.8811624E-2,-3.1772837E-1,-2.605471E-1,2.017851E-1,1.948317E-2,-1.9099323E-1,6.233501E-3,2.366816E-1,7.7233766E-3,-5.734047E-2,2.6120764E-1,-4.1747233E-1,2.9004514E-1,1.1900352E-1,-5.199519E-1,2.3266488E-1,2.1037588E-2,2.6916605E-1,1.5421167E-1,-5.2444547E-2,-5.457345E-1,1.0213726E-1],"split_indices":[59,7,5,0,85,3,4,9,100,23,49,3,3,19,0,19,30,26,6,96,0,0,0,3,3,30,3,52,32,1,0,56,100,4,4,50,0,55,0,3,0,0,0,32,0,0,50,0,6,0,3,37,0,37,0,0,0,0,0,0,0,0,0,0,0,0,0,0,0,0,0,0,0,0,0,0,0,0,0,0,0,0,0,0,0,0,0,0,0,0,0],"split_type":[0,0,0,0,0,0,0,0,0,0,0,0,0,0,0,0,0,0,0,0,0,0,0,0,0,0,0,0,0,0,0,0,0,0,0,0,0,0,0,0,0,0,0,0,0,0,0,0,0,0,0,0,0,0,0,0,0,0,0,0,0,0,0,0,0,0,0,0,0,0,0,0,0,0,0,0,0,0,0,0,0,0,0,0,0,0,0,0,0,0,0],"sum_hessian":[4.5006743E3,4.958598E2,4.0048145E3,1.588705E2,3.369893E2,3.8628435E3,1.4197116E2,1.6917353E1,1.4195314E2,3.3051437E2,6.4749265E0,3.760899E3,1.0194454E2,1.4095488E2,1.0162792E0,1.1040337E1,5.8770156E0,2.9591228E1,1.12361916E2,2.2852731E2,1.0198706E2,2.450927E0,4.0239997E0,3.7206526E3,4.024636E1,5.2174908E1,4.976963E1,1.356575E2,5.2973723E0,9.858526E0,1.1818103E0,3.136579E0,2.7404368E0,2.648159E1,3.1096387E0,7.722105E1,3.5140873E1,2.2586324E2,2.6640723E0,5.15542E1,5.043286E1,2.9024606E0,1.1215391E0,3.709803E3,1.0849405E1,2.579316E1,1.4453201E1,1.3052818E0,5.086963E1,1.5350445E1,3.441919E1,1.3376816E2,1.8893414E0,3.8515823E0,1.4457899E0,2.9832914E0,6.8752346E0,1.5092616E0,1.6273173E0,1.2330219E0,1.5074149E0,2.7061718E0,2.3775417E1,1.6240766E0,1.4855621E0,6.2781193E1,1.4439851E1,3.2507988E1,2.6328855E0,2.1495717E2,1.0906073E1,5.014462E1,1.4095811E0,2.5472868E1,2.4959993E1,1.6950829E0,1.2073777E0,3.2831755E3,4.2662753E2,9.811566E0,4.6416345E0,4.5974392E1,4.8952355E0,1.37931795E1,1.5572648E0,1.4708561E1,1.9710627E1,1.2344315E2,1.0325011E1,2.5407333E0,1.310849E0],"tree_param":{"num_deleted":"0","num_feature":"103","num_nodes":"91","size_leaf_vector":"0"}},{"base_weights":[-8.0678926E-4,-1.0796367E-2,4.4064718E-1,-4.13677E-4,-1.4091791E0,9.59842E-1,2.4948129E-1,-8.163233E-3,1.0961311E0,1.1169128E0,4.6665236E-1,-2.0717378E-1,7.29951E-1,9.790335E-4,-1.3240551E0,1.1609125E0,1.7761618E-2,3.6041036E-1,1.1934222E0,4.1492064E-2,9.016542E-1,-1.0226187E0,-5.9539575E-2,8.995981E-1,3.4159654E-1,8.141309E-3,-5.620076E-1,1.1903177E0,4.6996114E-1,-1.513345E-1,7.009886E-1,1.2509248E0,3.9893925E-1,-3.711088E-1,7.659831E-1,1.0407474E0,-3.6052158E-1,1.9532734E-1,9.679616E-1,6.06149E-1,-3.2996908E-1,5.466845E-3,1.4958528E0,-6.689383E-1,6.498042E-1,-4.4723564E-1,-7.747932E-2,-8.4906137E-1,1.3839819E-1,-2.3926353E-1,5.536117E-1,7.70686E-1,-8.902615E-2,-8.6178935E-1,2.9917878E-1],"categories":[],"categories_nodes":[],"categories_segments":[],"categories_sizes":[],"default_left":[1,1,1,1,0,1,1,1,1,1,1,1,1,1,0,1,0,1,1,1,0,0,1,1,1,1,1,0,0,0,0,0,0,1,0,0,1,1,0,1,1,0,0,0,0,0,0,0,0,0,0,0,0,0,0],"id":18,"left_children":[1,3,5,7,-1,9,11,13,15,17,19,21,23,25,-1,27,-1,29,31,33,-1,-1,35,37,39,41,43,-1,-1,-1,-1,-1,-1,45,-1,-1,47,49,-1,51,53,-1,-1,-1,-1,-1,-1,-1,-1,-1,-1,-1,-1,-1,-1],"loss_changes":[1.9644482E1,6.3243225E1,9.544001E0,3.676028E1,0E0,1.5064926E0,1.625499E1,5.1676937E1,2.100113E0,6.7741203E-1,1.4496144E0,4.5631475E0,2.0636082E0,1.720962E1,0E0,2.212143E-2,0E0,6.620939E-1,2.7508545E-1,1.8130907E0,0E0,0E0,1.1496924E1,9.8731804E-1,2.4302354E0,1.6759521E1,7.38208E0,0E0,0E0,0E0,0E0,0E0,0E0,5.324632E-2,0E0,0E0,6.726012E0,6.641539E-1,0E0,1.1389928E0,1.6614733E0,0E0,0E0,0E0,0E0,0E0,0E0,0E0,0E0,0E0,0E0,0E0,0E0,0E0,0E0],"parents":[2147483647,0,0,1,1,2,2,3,3,5,5,6,6,7,7,8,8,9,9,10,10,11,11,12,12,13,13,15,15,17,17,18,18,19,19,22,22,23,23,24,24,25,25,26,26,33,33,36,36,37,37,39,39,40,40],"right_children":[2,4,6,8,-1,10,12,14,16,18,20,22,24,26,-1,28,-1,30,32,34,-1,-1,36,38,40,42,44,-1,-1,-1,-1,-1,-1,46,-1,-1,48,50,-1,52,54,-1,-1,-1,-1,-1,-1,-1,-1,-1,-1,-1,-1,-1,-1],"split_conditions":[4.2435E3,3.12E3,4.401E3,3.048E3,-4.2275375E-1,4.75E1,7.0735E3,5.7E1,5E-1,3.6E1,1.05E1,4.6685E3,5.45E1,5E-1,-3.9721653E-1,5E-1,5.3284857E-3,4.15E1,1.35E1,5E-1,2.7049628E-1,-3.067856E-1,4.826E3,3.55E1,5E-1,5E-1,7.82E2,3.5709533E-1,1.4098835E-1,-4.540035E-2,2.1029659E-1,3.7527746E-1,1.1968178E-1,5.75E1,2.2979493E-1,3.1222424E-1,5.119E3,9.5E0,2.903885E-1,5E-1,6.35E1,1.6400536E-3,4.4875586E-1,-2.006815E-1,1.9494127E-1,-1.341707E-1,-2.3243796E-2,-2.5471842E-1,4.1519456E-2,-7.1779065E-2,1.6608351E-1,2.312058E-1,-2.6707847E-2,-2.5853682E-1,8.9753635E-2],"split_indices":[2,2,2,2,0,4,2,2,24,4,1,2,0,51,0,20,0,0,1,38,0,0,2,4,9,29,3,0,0,0,0,0,0,4,0,0,2,1,0,27,0,0,0,0,0,0,0,0,0,0,0,0,0,0,0],"split_type":[0,0,0,0,0,0,0,0,0,0,0,0,0,0,0,0,0,0,0,0,0,0,0,0,0,0,0,0,0,0,0,0,0,0,0,0,0,0,0,0,0,0,0,0,0,0,0,0,0,0,0,0,0,0,0],"sum_hessian":[4.4525137E3,4.354942E3,9.75716E1,4.3238384E3,3.1103273E1,2.5175499E1,7.23961E1,4.294481E3,2.9357618E1,1.8135153E1,7.0403466E0,3.740957E1,3.4986538E1,4.265843E3,2.8638039E1,2.7621737E1,1.7358809E0,2.190159E0,1.5944994E1,4.1144075E0,2.925939E0,4.826133E0,3.2583435E1,2.3433512E1,1.1553025E1,4.213228E3,5.261484E1,2.580099E1,1.8207481E0,1.0971946E0,1.0929644E0,1.4333087E1,1.6119075E0,2.9322464E0,1.1821611E0,6.4707503E0,2.6112684E1,2.4147105E0,2.10188E1,8.357953E0,3.195072E0,4.2066694E3,6.558668E0,4.8760212E1,3.8546314E0,1.913119E0,1.0191275E0,1.2839E1,1.3273685E1,1.241272E0,1.1734384E0,6.6705246E0,1.6874288E0,1.5310767E0,1.6639954E0],"tree_param":{"num_deleted":"0","num_feature":"103","num_nodes":"55","size_leaf_vector":"0"}},{"base_weights":[-3.5078824E-4,-1.2563289E-2,3.1632683E-1,-2.4799581E-1,4.350846E-3,3.3916253E-1,-6.6520435E-1,-3.4051135E-1,5.4889075E-2,8.742443E-3,-8.466765E-1,1.4392896E-1,4.5049164E-1,-5.2913964E-1,-1.3837355E-1,-2.0505657E-2,9.6100026E-1,1.4731607E-2,-5.592419E-1,-1.0114275E0,9.1082954E-1,-6.060278E-1,2.2678436E-1,4.7394484E-1,-3.882268E-1,-5.724197E-1,6.8439E-1,1.5153174E0,-2.1213451E-1,-5.2212435E-1,1.4664382E-1,3.479998E-2,-1.6034709E-1,-7.4871486E-1,5.256957E-1,-1.2244589E0,-1.171793E-1,-6.3065186E-2,-1.1116407E0,2.9127005E-1,-7.8753E-1,6.442096E-1,2.6597708E-1,-1.106805E0,6.365503E-1,-6.181496E-1,4.9960926E-1,4.6756285E-1,1.849968E0,1.4043897E-1,-5.5209476E-1,-9.4303566E-1,1.1675504E0,2.693388E-1,-1.3824372E0,-4.3864917E-2,9.154628E-2,-2.0320922E-1,6.7720735E-1,-8.2423484E-1,7.647626E-1,8.730223E-1,-7.1635276E-1,-1.3797264E0,2.526166E-1,-8.7861633E-1,8.335036E-1,-7.575682E-1,5.325812E-1,3.6158702E-1,-4.2157024E-1,4.9265906E-1,1.2361163E0,3.792271E-1,-6.826071E-1],"categories":[],"categories_nodes":[],"categories_segments":[],"categories_sizes":[],"default_left":[1,1,1,1,1,1,0,1,1,1,1,1,1,1,1,1,